%YAML:1.0
---
opencv_ml_svm:
   format: 3
   svmType: EPS_SVR
   kernel:
      type: LINEAR
   C: 0.01
   p: 0.10000000000000001
   term_criteria: { iterations:100 }
   var_count: 576
   sv_total: 1
   support_vectors:
      - [ -0.0193639249, -0.00242231344, 0.0194721781, -0.0141675696,
          -0.0237851627, 0.00746053224, 0.0313049853, 0.0153453462,
          0.00237699412, 0.0145134712, 0.0402268954, 0.0324228071,
          -0.0283325184, -0.0332577489, 0.0239297152, 0.0335583836,
          0.0178184863, 0.00969875325, -0.0351672918, -0.00240447186,
          0.0134806465, 0.0151791982, 0.00751299458, -0.0035899221,
          0.0273148101, 0.00335840229, -0.0134193515, 0.00410465617,
          0.043154601, 0.0436039567, 0.0227019172, 0.00800945517,
          0.0131434081, 0.0336378105, 0.0232167598, 0.011048588,
          0.0140069257, 0.0197492298, 0.0134104323, -0.0239427835,
          -0.0294005666, 0.019647846, 0.0165346935, 0.000850859913,
          -0.000659152633, 0.0101940231, 0.0316137448, 0.0158088841,
          -0.0179488324, -0.0215111338, 0.00500308303, -7.60062758e-05,
          -0.00602681469, -0.00127316779, 0.0115376972, 0.0433565006,
          0.0493934117, 0.0464921184, 0.0119641451, 0.0176120903,
          0.0136020668, 0.00407035509, 0.0148678413, 0.0126620252,
          0.0489167459, 0.0291771181, 0.0315577127, 0.0113783013,
          0.027839832, -0.00188809528, -0.00653520133, 0.0028959827,
          0.0165511444, 0.0262325909, 0.00858895481, -0.0247583576,
          -0.00922498014, 0.0148831643, 0.00928278919, 0.00716716191,
          0.0116015961, -0.0168545656, 0.0107204253, -0.0101351328,
          -0.0349155702, -0.017582722, 0.0130501585, 0.00319664413,
          0.00734836329, -0.00105100137, 0.00952582434, 0.0414773375,
          0.0143627981, 0.0123952469, 0.0105147837, 0.0381975509,
          0.0122701237, 0.0159096215, 0.0134909814, -0.00916083623,
          0.0106019117, 0.00528267398, -0.00401515048, 0.00524374656,
          0.0366442762, 0.00370905921, 0.0109324129, 0.0136700654,
          0.00438780943, 0.0200304352, 0.0184753519, -0.0147255184,
          -0.00818260573, 0.0409791768, 0.0309758745, 0.0257387739,
          0.0189387333, -0.00984872319, 0.0196044967, 0.0366237424,
          -0.0300337877, -0.0555603318, -0.0185071453, 0.00971794408,
          0.00984986313, 0.004818107, -0.00107043702, 0.0128602963,
          0.019166775, 0.0233696308, 0.0152717205, 0.0574868657,
          0.0129312538, 0.0070245075, 0.0122527573, -0.0235189684,
          -0.000555281877, 0.0171296336, -0.00618205033, -0.00709317299,
          0.00173072366, -0.00496488484, -0.0165882073, -0.011899652,
          -0.036413949, -0.0331838168, -0.012849194, 0.0186092574,
          0.0306684338, 0.00253263209, 0.0294257645, -0.0110972133,
          -0.0381702483, -0.021185616, -0.0030075924, -0.0046308795,
          0.0371255577, 0.0358456485, 0.018404277, 0.0383241996,
          0.0156808291, -0.0137925958, -0.0267103128, -0.0246888641,
          -0.0200884342, 0.0023585821, 0.0125948377, -0.0128067499,
          -0.00662357174, -0.0150525933, -0.0306856725, -0.0246574581,
          -0.01372026, -0.0248343926, 0.0191231035, 0.0285082292,
          0.0115474844, 0.0155820139, 0.00688733533, -0.0201430134,
          -0.00102491514, 0.0138239879, 0.008278355, 0.0418136343,
          0.0154363215, 0.00818032678, 0.0124096787, 0.00049953803,
          0.0030978776, 0.00567235379, 0.0132122329, 0.00833061244,
          0.0284302514, 0.0263605025, 0.00890560448, -0.00847957563,
          -0.0152709186, -0.00495394086, 0.00859779585, 0.00596167054,
          -0.0102562066, 0.0343318842, 0.0274365153, 0.00773880491,
          0.00800669566, 0.00650668284, 0.0108960429, 0.0102627287,
          -0.0104084089, -0.0149681913, 0.0124935992, 0.0281437691,
          0.00225556944, -0.00506754359, -0.0193354338, 0.0087501565,
          0.00586288935, 0.00130442355, -0.0149586769, 0.0113757625,
          0.038424395, 0.0186720751, -0.00210645678, -0.00509883976,
          0.00372787076, -0.005303571, -0.0186333042, -0.0270347949,
          0.00615122961, 0.0211380031, 0.0125329355, -0.0134339752,
          -0.00772318337, 0.000675060845, 0.0290449802, -0.0183504634,
          -0.0315478332, 0.0105038704, 0.0236874986, 0.0118551096,
          -0.00583594991, 0.00295221596, 0.0298034772, 0.0148425689,
          -0.0259755533, -0.0396563485, 0.013016142, 0.00289981533,
          -0.00471562939, -0.0137736425, 0.00764355808, 0.01738053,
          -0.0125476327, -0.0263481215, -0.016232172, 0.0109479865,
          0.0352580324, 0.0190609284, -0.0133832218, -0.0137928436,
          -0.00939394999, -0.0232322142, -0.0328607038, -0.0237575136,
          -0.0126498146, 0.00699581392, -0.0196446851, -0.0231591556,
          -0.024788022, -0.0101034278, 0.0100847306, -0.0207927767,
          -0.0103700459, 0.0286866166, 0.0280149896, 0.00126149657,
          -0.0146129848, -0.00224406412, 0.007919861, 0.00222917111,
          -0.0267457291, -0.0220767669, 0.0181673411, 0.0169375017,
          -0.0201639105, -0.0155998878, 0.00155240751, -0.00363184465,
          -0.0168131646, -0.0144355651, -0.0288946815, -0.0129917962,
          0.0148134576, 0.00340215536, -0.00815287698, -0.00506461132,
          -0.0122935493, -0.00769988773, 0.0224370696, 0.0167026296,
          0.0297112539, 0.0490510315, 0.00871751644, 0.0118790241,
          0.0113692675, 0.000321160012, -0.0291545093, -0.00481958315,
          0.00010138654, -0.0293290503, 0.0134541094, -0.000212275161,
          -0.00743759796, -0.0127853081, -0.0303540193, 0.0141162723,
          0.0626428872, 0.0406236686, 0.0212195497, 0.0312724411,
          0.0279171262, 0.0360608324, 0.0196788013, 0.0210873522,
          0.0168428347, 0.0170366857, 0.0100483214, 0.00751476502,
          0.0251379963, -0.0100928685, 0.0100941192, 0.0120418062,
          0.00948603358, 0.0242804941, -0.00367284496, -0.00808670186,
          -0.00413976423, 0.00767615531, -0.00944786519, 0.000538242399,
          -0.00975220557, 0.0170505103, 0.0336148664, 0.0515034385,
          0.0499609299, 0.00965271983, 0.00276578753, 0.00454450725,
          0.0410428196, 0.0389137827, 0.0312001761, 0.0256772134,
          0.0263914112, 0.0339223556, 0.00745645165, -0.00916392915,
          0.00720173959, 0.0292771552, 0.0240612607, 0.0195058752,
          0.0443616249, -0.00561160455, -0.0111399367, -6.00800886e-05,
          0.005060005, 0.0138774319, 0.011583399, 0.0134719983,
          0.0354602858, 0.0151217887, -0.0210562572, -0.0179785844,
          0.0145211313, 0.000449867366, -0.0119150942, -0.0027428891,
          0.0136338565, 0.00792600587, 0.0293003004, 0.0160444137,
          0.0275178384, 0.0111461692, 0.00344279897, 0.0276188925,
          0.0476368666, 0.0272082128, 0.0327490494, -0.00828368496,
          -0.0115576768, 0.00981669128, 0.0254091639, -0.0148545932,
          0.000690591172, 0.0188017096, 0.0083851153, 0.0116124181,
          0.00529513787, -0.0162684228, -0.0051448415, 0.0352003761,
          0.0140087707, -0.00730402349, 0.00213579112, 0.0123666115,
          0.000923069543, -0.00743559329, -0.0253273528, -0.013923794,
          0.00831365492, -0.0194663145, -0.019443281, 0.00448659388,
          0.0157791171, -0.00697739655, -0.00228743721, -0.00359140988,
          0.0319900624, 0.0389345214, 0.00834417343, 0.00571933994,
          0.00888979435, 0.00443280069, 0.0198955629, 0.00855533406,
          -0.0298809428, -0.00917531922, -0.00171587896, -0.0216452777,
          -0.0108058145, -0.00163275108, -0.00647706445, 0.0102314819,
          -0.00836716779, 0.0197965242, 0.00226812367, -0.0269835982,
          0.014231341, 0.00263426965, 0.00553738372, -0.00398674887,
          -0.0224830694, 0.0378690064, 0.0854077414, 0.0490708314,
          0.0510122553, 0.0379724242, 0.0261122491, 0.0436547771,
          0.0240778401, 0.0242684353, -0.0295539517, 0.0309138503,
          -0.00398795353, -0.027860295, -0.020293653, -0.0184539035,
          -0.00823114254, -0.0422319621, -0.0599605441, 0.00163851946,
          0.0569779724, 0.036610987, 0.0300011653, 0.00928587466,
          0.000790746184, -0.00503966818, -0.0251232162, -0.0249921493,
          0.0295742135, 0.0486157313, 0.0415682755, 0.0203453656,
          -0.00938452594, -0.0040405388, 0.0554562062, 0.0411339998,
          0.0150139015, 0.00804750714, 0.0303295646, 0.0383025631,
          0.0241072942, -0.00389215606, 0.0141070345, 0.0424584858,
          0.0401745439, 0.00301488186, -0.00529905781, 0.0113711245,
          -0.00328423362, -0.0221008547, -0.0270496979, -0.0262741409,
          0.00149036408, -0.0181845762, -0.0151903108, -0.0250188634,
          -0.00464078924, 0.00103251869, -0.0138228713, -0.000383428531,
          0.00698929792, 0.0321790054, 0.0240161102, -0.0206014533,
          0.0186939053, 0.0457100421, 0.0452761389, 0.0218481477,
          -0.00809280854, 0.0173970144, 0.0502671264, 0.0289345235,
          0.00780257769, -0.00936978497, 0.0108832587, 0.0251635872,
          0.0137358131, -0.0234886184, -0.00274748891, 0.0284621399,
          -0.00129310286, -0.00999249797, -0.00995389745, 0.0222617015,
          0.0231319889, -0.016306594, -0.000500474474, 0.0107917301,
          0.0313692763, 0.0206761863, -0.00329304929, -0.0152687095,
          0.00245391275, 0.00274352357, -0.0403406173, -0.027849298,
          -0.0107620601, 0.0203946307, 0.000680195517, -0.0128074503,
          0.0108737806, 0.0128853042, 0.0322964601, 0.00680925837,
          -0.00791274384, 0.0235059429, 0.049459178, 0.0238999669,
          0.0181686375, -0.00390064414, -0.0278382115, -0.00156215543,
          -0.023175884, -0.0171399508, 0.0065115951, 0.015615887,
          -0.00719565479, -0.0091383066, -0.000313847821, 0.0213565137,
          0.0255480688, -0.0301513895, -0.0234391615, 0.000914883451,
          0.0272879954, 0.00356293353, 0.0103800604, -0.00864255056,
          -0.00970435422, 0.0102179991, -0.0388535894, -0.0170726795,
          0.0027404849, 0.0212909244, 0.00634902855, -0.00165374984 ]
   uncompressed_sv_total: 200
   uncompressed_support_vectors:
      - [ 0.00852459855, 0.0799776316, 0.150234506, 0.0658273175,
          0.0325259343, 0.00641682465, 0.00171975489, 0.0049996106,
          0.0045784032, 0.0446557216, 0.2825737, 0.335524261,
          0.290171802, 0.0861542672, 0.0122465733, 0.00549096288,
          0.0101255924, 0.0614197813, 0.00785546377, 0.125355199,
          0.234031707, 0.177983835, 0.335524261, 0.0329330564,
          0.00150068663, 0.00526453368, 0.00425389269, 0.0207525771,
          0.335524261, 0.335524261, 0.335524261, 0.335524261,
          0.0627568364, 0.00706097204, 0.00885305926, 0.0359678529,
          0.0882863477, 0.251381636, 0.281379282, 0.281379282,
          0.100467116, 0.0104382858, 0.0104767904, 0.0384536572,
          0.0777160078, 0.187451452, 0.281379282, 0.281379282,
          0.199944034, 0.114907645, 0.0163719542, 0.0319037773,
          0.0834767744, 0.0989694297, 0.0574000105, 0.214465246,
          0.281379282, 0.281379282, 0.281379282, 0.0342799537,
          0.0186414495, 0.0285099708, 0.0674818531, 0.146015823,
          0.149327651, 0.106693424, 0.173155263, 0.281379282,
          0.0584805608, 0.0367867313, 0.0584327206, 0.138760999,
          0.196205601, 0.323451251, 0.323451251, 0.147372454,
          0.128919855, 0.0299117882, 0.0641195625, 0.0692912415,
          0.151067361, 0.118945226, 0.0860378444, 0.0750526041,
          0.0465493314, 0.2338503, 0.166436881, 0.104150079, 0.165079728,
          0.156281829, 0.14163506, 0.144064948, 0.101633348, 0.208096743,
          0.323451251, 0.122761361, 0.122744091, 0.0492907912,
          0.156748235, 0.0687855929, 0.0638919175, 0.0511456206,
          0.199140444, 0.323451251, 0.262016058, 0.134491339,
          0.0293306354, 0.0654908344, 0.0768171474, 0.0364186987,
          0.00832273904, 0.0329073593, 0.372788131, 0.372788131,
          0.205152571, 0.312670529, 0.170997068, 0.0622230284,
          0.0455041118, 0.0329277664, 0.018694479, 0.082776472,
          0.112300657, 0.0677185059, 0.0743765756, 0.0632321015,
          0.0208703484, 0.0219282247, 0.0512765869, 0.270599216,
          0.372788131, 0.372788131, 0.125025526, 0.0455118082,
          0.0305483919, 0.0233321711, 0.100476943, 0.153261691,
          0.11572057, 0.232147232, 0.142391756, 0.0603501461,
          0.0240801517, 0.0255067497, 0.0196198784, 0.0378450789,
          0.0683948323, 0.125010774, 0.378102183, 0.0271351058,
          0.000501088449, 0.00238074525, 0.0117574204, 0.00527852261,
          0.0495366827, 0.0953631252, 0.378102183, 0.378102183,
          0.0768473074, 0.00212740758, 0.00227781432, 0.00401532417,
          0.0969617292, 0.162578329, 0.269730866, 0.126822129,
          0.378102183, 0.0834130049, 0.00252689351, 0.00525020435,
          0.0600865074, 0.0990350395, 0.0420266688, 0.055413682,
          0.157684922, 0.378102183, 0.215665698, 0.0289055686,
          0.0698355362, 0.117890432, 0.0160585195, 0.0255820062,
          0.0538582504, 0.293013126, 0.293013126, 0.0771576837,
          0.0271123126, 0.0141241541, 0.0254600644, 0.0550121479,
          0.0145991929, 0.0323377922, 0.18012622, 0.293013126,
          0.0892045498, 0.0710245296, 0.0443372317, 0.112625785,
          0.248218641, 0.0640520975, 0.0715128854, 0.111885771,
          0.293013126, 0.180711761, 0.0865396336, 0.165866733,
          0.293013126, 0.156029597, 0.0938857049, 0.152553052,
          0.143542498, 0.234299481, 0.128278568, 0.255398393,
          0.214580417, 0.28528899, 0.0367955528, 0.0430077463,
          0.0563989282, 0.290138125, 0.328483284, 0.116208129,
          0.0808969811, 0.0477317236, 0.108313866, 0.0125808138,
          0.0361397937, 0.0483781844, 0.297708064, 0.328483284,
          0.133348227, 0.0489027724, 0.0205301084, 0.0414918251,
          0.0290881302, 0.0737041086, 0.128153235, 0.231371954,
          0.328483284, 0.16335015, 0.217335224, 0.164591163, 0.150514871,
          0.0132331504, 0.0374569558, 0.071263656, 0.328483284,
          0.328483284, 0.0774291381, 0.0358185284, 0.0331176817,
          0.0539234281, 0.00738232955, 0.0301027112, 0.0784117505,
          0.41764304, 0.41764304, 0.202459946, 0.0264863297,
          6.78043652e-05, 0.00376477162, 0.0170013607, 0.0905522034,
          0.134117618, 0.188376263, 0.213417381, 0.0525919609,
          0.0233793035, 0.00117930758, 0.00762163615, 0.0145871872,
          0.0283140894, 0.102492817, 0.41764304, 0.41764304,
          0.0981554687, 0.0122548165, 0.00464506727, 0.00778928306,
          0.0441956744, 0.048184976, 0.0997527763, 0.248652369,
          0.198410109, 0.0253288113, 0.0174959693, 0.0119182002,
          0.0230936296, 0.120220222, 0.254232168, 0.267453581,
          0.119049393, 0.267453581, 0.117989637, 0.0073037683,
          0.00815494917, 0.097558111, 0.267453581, 0.142313018,
          0.204656169, 0.112365708, 0.267453581, 0.267453581,
          0.0621635243, 0.169292197, 0.267453581, 0.0781643987,
          0.0776973739, 0.11619886, 0.0481242612, 0.105974652,
          0.0285426378, 0.00663604774, 0.00574160088, 0.0566717051,
          0.23557356, 0.182887003, 0.223595098, 0.234494284, 0.207442731,
          0.136380553, 0.055559095, 0.102625169, 0.177646488,
          0.218550354, 0.158720791, 0.186311677, 0.0696012601,
          0.207983106, 0.137392953, 0.0638697147, 0.15551132,
          0.218550354, 0.197683215, 0.218550354, 0.218550354,
          0.0847068503, 0.134759188, 0.138616979, 0.155192167,
          0.170758158, 0.178698748, 0.218550354, 0.218550354,
          0.218550354, 0.218550354, 0.137191579, 0.122661948,
          0.0626768768, 0.0866629109, 0.137310356, 0.218550354,
          0.218550354, 0.218550354, 0.141648859, 0.121209897,
          0.134233102, 0.0992293656, 0.104740977, 0.103469864,
          0.136226043, 0.234690934, 0.188530207, 0.13700977, 0.227413327,
          0.235297471, 0.235297471, 0.235297471, 0.141231224,
          0.0242004376, 0.0291606169, 0.079088971, 0.235297471,
          0.233049154, 0.0957492664, 0.08152771, 0.159553945,
          0.0622455068, 0.235297471, 0.235297471, 0.169390723,
          0.126986489, 0.126711518, 0.233561203, 0.183004975,
          0.235297471, 0.133552283, 0.0672308356, 0.0891591907,
          0.0947783291, 0.205957383, 0.0975789353, 0.0580217578,
          0.109341584, 0.197367266, 0.094382599, 0.0129323937,
          0.0118405903, 0.100904293, 0.316182077, 0.316182077,
          0.0348221399, 0.0305502806, 0.0613441095, 0.0286434125,
          0.112173222, 0.063487269, 0.217941537, 0.168780208,
          0.126624256, 0.0152555015, 0.0184505787, 0.0306675024,
          0.100989521, 0.0174944028, 0.0322056226, 0.100287795,
          0.316182077, 0.193246514, 0.0319511145, 0.0521829128,
          0.0818028525, 0.0488835871, 0.316182077, 0.185319737,
          0.316182077, 0.269893289, 0.316182077, 0.0776690841,
          0.0171845239, 0.0246054698, 0.289415389, 0.096136041,
          0.275243431, 0.243836626, 0.0645061806, 0.0468014367,
          0.0160441957, 0.0142680379, 0.0111367684, 0.0346942097,
          0.275243431, 0.275243431, 0.275243431, 0.275243431,
          0.248890549, 0.275243431, 0.257844836, 0.0937037244,
          0.155262738, 0.038382642, 0.242815852, 0.271791548,
          0.115945101, 0.063734889, 0.00762326038, 0.0110073611,
          0.0132797891, 0.0185909607, 0.157081664, 0.254739136,
          0.208689973, 0.0653128326, 0.0652853623, 0.0705883726,
          0.0550402999, 0.015230516, 0.0462560691, 0.255012721,
          0.255012721, 0.255012721, 0.255012721, 0.174638763,
          0.255012721, 0.203698441, 0.0894518644, 0.185624078,
          0.255012721, 0.255012721, 0.219177842, 0.255012721,
          0.117234029, 0.252524704, 0.230556056, 0.194434687,
          0.240393162, 0.11738155, 0.0865133256, 0.0787160248,
          0.0445391424, 0.0498058237, 0.0513567515, 0.0395735204,
          0.0188855175, 0.0360593461, 0.0748334602, 0.0508897044,
          0.0794343278, 0.102402285, 0.0950039104, 0.068160288,
          0.0786002204, 0.0526664332, 0.0552741401, 0.264302045,
          0.264302045, 0.236561641, 0.264302045, 0.14286308, 0.264302045,
          0.264302045, 0.264302045, 0.264302045, 0.168874651,
          0.264302045, 0.181134939, 0.133841023, 0.129699439,
          0.0402504578, 0.1118972, 0.149965107, 0.150684252,
          0.0758504346, 0.0772046223, 0.114084728, 0.146952525,
          0.199767128, 0.127289549, 0.184036046, 0.127034247,
          0.118766166, 0.0608565584, 0.0423289314, 0.0640771538,
          0.0213400386, 0.105312407, 0.0277180206, 0.0725544393,
          0.0779309943, 0.0833281353, 0.0397249535, 0.0694075152,
          0.115924597, 0.0692896917, 0.233930886, 0.0445594527,
          0.0548409335, 0.0553655177, 0.0515305698, 0.382145762,
          0.223472729, 0.382145762, 0.382145762, 0.382145762,
          0.175206721, 0.0379395895, 0.0427018255, 0.382145762,
          0.0657499135, 0.0374336913, 0.108342879, 0.0112013733,
          0.0952263847, 0.00608100742, 0.025679836, 0.0321846306,
          0.0692038611, 0.107852943, 0.0254993346, 0.0957870781,
          0.0449113548, 0.132603049, 0.013462116, 0.0223559979,
          0.0245622937, 0.128499642 ]
      - [ 0.136499241, 0.171253547, 0.228823692, 0.163359135,
          0.233319789, 0.233319789, 0.217043459, 0.0897458941,
          0.0361276306, 0.165047809, 0.104122348, 0.174487531,
          0.111172937, 0.233319789, 0.233319789, 0.204084188,
          0.0644017234, 0.103459157, 0.175129712, 0.17608963,
          0.122510023, 0.0964587405, 0.182347968, 0.233319789,
          0.21049358, 0.117043734, 0.0481014177, 0.117373049,
          0.0695231259, 0.104406677, 0.126813516, 0.211960107,
          0.231458381, 0.226458326, 0.144177854, 0.0942828804,
          0.160030022, 0.10464444, 0.145355031, 0.22368224, 0.216457203,
          0.115957737, 0.102680787, 0.047288876, 0.0945994481,
          0.0495489091, 0.0969912633, 0.1121042, 0.190189794,
          0.125129491, 0.0153816929, 0.0365732014, 0.0216816664,
          0.0215293188, 0.0566793755, 0.097693257, 0.257873774,
          0.301333517, 0.241587251, 0.125334576, 0.132656857,
          0.0793434903, 0.0620646551, 0.290591329, 0.301333517,
          0.301333517, 0.301333517, 0.301333517, 0.0363845453,
          0.065782018, 0.0410355963, 0.0401199907, 0.0342062227,
          0.0373080149, 0.0449371785, 0.0828524083, 0.0738458857,
          0.0183102284, 0.0342499949, 0.0230748747, 0.0309490617,
          0.0884355381, 0.166676581, 0.294591069, 0.294591069,
          0.178013161, 0.0399104916, 0.0220076591, 0.0385512412,
          0.0663764626, 0.143955916, 0.225279704, 0.225810051,
          0.294591069, 0.294591069, 0.0685731545, 0.0722910538,
          0.0663893297, 0.077549912, 0.0746634826, 0.106877945,
          0.254159212, 0.294591069, 0.294591069, 0.294591069,
          0.102670193, 0.202032059, 0.136545748, 0.146685705,
          0.197389513, 0.222484201, 0.190135971, 0.107352018,
          0.077489391, 0.0104672862, 0.0659887493, 0.109032296,
          0.174687117, 0.272891641, 0.272891641, 0.127308741,
          0.142404333, 0.164489776, 0.0788510889, 0.240487233,
          0.272891641, 0.0662971586, 0.0958595723, 0.1323798,
          0.272891641, 0.272891641, 0.220752627, 0.0421787575,
          0.184066087, 0.10968598, 0.0799576491, 0.0551652163,
          0.0475215241, 0.125638604, 0.272891641, 0.131029814,
          0.0661471114, 0.150808781, 0.114164844, 0.0667077303,
          0.0785543695, 0.133675605, 0.181646317, 0.268985718,
          0.268985718, 0.174242452, 0.0632907003, 0.0313763022,
          0.037817467, 0.0351982117, 0.169968352, 0.268985718,
          0.268985718, 0.249973908, 0.268985718, 0.0769277886,
          0.0205114055, 0.0390947014, 0.019578049, 0.0761440098,
          0.268985718, 0.268985718, 0.268985718, 0.0994069278,
          0.0477521047, 0.0381822735, 0.0416814573, 0.0344967768,
          0.135799572, 0.268985718, 0.268985718, 0.159708902,
          0.0839807764, 0.030138867, 0.0198176242, 0.00546068139,
          0.0357027128, 0.088017486, 0.195264354, 0.177031606,
          0.022975428, 0.0321661308, 0.00924345851, 0.00361081446,
          0.0587167814, 0.186288327, 0.272372812, 0.3684735, 0.3684735,
          0.0182816051, 0.0112380655, 0.00535185775, 0.00402856758,
          0.00450054929, 0.0136161353, 0.0657705218, 0.299488246,
          0.3684735, 0.0171081629, 0.00669360766, 0.00317118829,
          0.00366367772, 0.0078906063, 0.0517187864, 0.161733925,
          0.3684735, 0.3684735, 0.0301107727, 0.00471995864,
          0.00302767754, 0.00347615429, 0.0536989607, 0.113061592,
          0.188110083, 0.304319233, 0.304319233, 0.0850380436,
          0.0416607521, 0.0233088844, 0.0140070478, 0.0191908162,
          0.0246755313, 0.0773259401, 0.304319233, 0.304319233,
          0.219479591, 0.0730176568, 0.0979446173, 0.026043402,
          0.0533577874, 0.0874530524, 0.139768645, 0.304319233,
          0.304319233, 0.111444063, 0.0196734853, 0.00749734463,
          0.00723877922, 0.10549061, 0.098068133, 0.142404422,
          0.304319233, 0.304319233, 0.185574576, 0.0470478721,
          0.0398783498, 0.04874577, 0.0224678405, 0.0306757577,
          0.0866969675, 0.295422405, 0.295422405, 0.295422405,
          0.0571216904, 0.116155721, 0.0282709729, 0.0175241046,
          0.0185414031, 0.0386448428, 0.158492312, 0.295422405,
          0.242277876, 0.033589229, 0.0436905362, 0.0148550412,
          0.102551751, 0.0508581363, 0.157538712, 0.295422405,
          0.295422405, 0.295422405, 0.0806081817, 0.0591766797,
          0.078758724, 0.0321456604, 0.0175181367, 0.057455685,
          0.174887419, 0.295422405, 0.295422405, 0.073467195,
          0.0231120549, 0.0236322153, 0.0707338452, 0.0243444126,
          0.0594101623, 0.236746073, 0.351764172, 0.351764172,
          0.164518803, 0.0544967726, 0.056925822, 0.0548265986,
          0.0232912097, 0.0359850377, 0.264703125, 0.351764172,
          0.181833223, 0.0799122602, 0.044833418, 0.0367945731,
          0.0830326751, 0.0331955813, 0.0645486638, 0.112877846,
          0.351764172, 0.231674537, 0.127195492, 0.038794823,
          0.0835070238, 0.0168786291, 0.0149806924, 0.0346203335,
          0.156280518, 0.351764172, 0.1713074, 0.04700711, 0.0208167713,
          0.0162657499, 0.00379873696, 0.00153290597, 0.00997960847,
          0.136506885, 0.343172759, 0.0312378667, 0.00309434999,
          0.00181391253, 0.00266225194, 0.0972491801, 0.0475980304,
          0.0436038859, 0.343172759, 0.343172759, 0.0814144388,
          0.0203014892, 0.00549181271, 0.0178468376, 0.00633555138,
          0.00826075301, 0.0206967667, 0.0791769549, 0.343172759,
          0.115403816, 0.0215818267, 0.0254000109, 0.014949047,
          0.256842166, 0.212790474, 0.14881584, 0.324209869, 0.343172759,
          0.254973799, 0.13958554, 0.107425183, 0.104756042, 0.23472248,
          0.114846051, 0.0499682724, 0.20217523, 0.251885891,
          0.050463669, 0.0155532425, 0.00999879465, 0.0643658862,
          0.236651078, 0.161282405, 0.103011675, 0.187580511,
          0.112657629, 0.0345380306, 0.00815587118, 0.0257226564,
          0.118761346, 0.251885891, 0.251885891, 0.185697258,
          0.236652732, 0.232467383, 0.10950277, 0.125653774,
          0.0881413519, 0.166365325, 0.251885891, 0.251885891,
          0.251885891, 0.251885891, 0.154404402, 0.0677367747,
          0.0492216684, 0.0487171188, 0.192766666, 0.11937128,
          0.122648776, 0.173286945, 0.198651567, 0.208892703,
          0.125156462, 0.0245485399, 0.0284333955, 0.123995356,
          0.0222080834, 0.025754204, 0.0664493665, 0.141269371,
          0.241940528, 0.187493414, 0.0305337235, 0.00835633464,
          0.0422125086, 0.241940528, 0.241940528, 0.241940528,
          0.241940528, 0.232840598, 0.182107225, 0.0296808034,
          0.0708755553, 0.241940528, 0.18360649, 0.105174921,
          0.226912811, 0.180581361, 0.231175601, 0.211820617,
          0.0418546125, 0.165176287, 0.241940528, 0.0455573536,
          0.0113134068, 0.023206247, 0.13880375, 0.332729101,
          0.0916801095, 0.030761743, 0.014651306, 0.0515247956,
          0.00734767877, 0.0180239528, 0.066237852, 0.273128718,
          0.332729101, 0.0940747708, 0.0186790023, 0.00723436987,
          0.00583908195, 0.0333041809, 0.0121352552, 0.0210539978,
          0.212856069, 0.332729101, 0.11252816, 0.0162383392,
          0.00554213859, 0.0342211239, 0.0046443576, 0.332729101,
          0.332729101, 0.332729101, 0.332729101, 0.191873819,
          0.0288461298, 0.00507640559, 0.00198090146, 0.00898221694,
          0.0610125139, 0.140567586, 0.0882298723, 0.162117377,
          0.0875282586, 0.020638058, 0.0173603259, 0.0117488373,
          0.178799078, 0.276634812, 0.276634812, 0.220346138,
          0.248414606, 0.197594136, 0.12576519, 0.0972906798,
          0.0850120708, 0.00774233369, 0.276634812, 0.276634812,
          0.242504716, 0.142987981, 0.0641868338, 0.0161447655,
          0.00245386665, 0.00299724797, 0.148450419, 0.276634812,
          0.276634812, 0.268999666, 0.208175123, 0.127865821,
          0.113448821, 0.0486662984, 0.0714232549, 0.244323388,
          0.254239172, 0.254239172, 0.235747263, 0.101198584,
          0.0824557319, 0.117716111, 0.0982561707, 0.0820786655,
          0.171304017, 0.254239172, 0.254239172, 0.254239172,
          0.0757117569, 0.0496251695, 0.0453490578, 0.0493014157,
          0.0594202131, 0.169916213, 0.254239172, 0.254239172,
          0.196813405, 0.14034453, 0.0877065733, 0.138392627,
          0.0836756527, 0.0778459907, 0.0999821424, 0.254239172,
          0.254239172, 0.210139096, 0.0591599606, 0.0447889976,
          0.0646325722, 0.0985976011, 0.0826699585, 0.245964006,
          0.245964006, 0.245964006, 0.245964006, 0.103070982,
          0.159062952, 0.0487543866, 0.0944710746, 0.245964006,
          0.245964006, 0.119884811, 0.245964006, 0.161440402,
          0.0612317733, 0.157092541, 0.0530337058, 0.18992275,
          0.245964006, 0.115099177, 0.221021563, 0.245964006,
          0.201784998, 0.0462083891, 0.0496757068, 0.067036815,
          0.113740422, 0.169422537, 0.139514416, 0.0684221908,
          0.245964006, 0.169095844, 0.0479126833, 0.0276854318,
          0.0185049325, 0.031650532, 0.163974375 ]
      - [ 0.0679153651, 0.0982232094, 0.0837824494, 0.0432893746,
          0.0383737832, 0.0687710121, 0.0374135673, 0.0105745587,
          0.0168566164, 0.146274388, 0.223501191, 0.207028642,
          0.12047042, 0.0823520422, 0.131324559, 0.0601487644,
          0.0186091755, 0.0487853326, 0.218710706, 0.247527003,
          0.247527003, 0.247527003, 0.247527003, 0.247527003,
          0.164659619, 0.0336948186, 0.0484115221, 0.234986767,
          0.247527003, 0.247527003, 0.247527003, 0.247527003,
          0.247527003, 0.228804871, 0.0556477755, 0.0740944818,
          0.202043921, 0.178841591, 0.256439984, 0.12864989, 0.144011781,
          0.0771664307, 0.0295233745, 0.0295173731, 0.113478668,
          0.214009359, 0.0939695686, 0.271725744, 0.181550547,
          0.244109884, 0.179428086, 0.0571578182, 0.129566163,
          0.202134222, 0.173927948, 0.160654142, 0.200373828, 0.19617638,
          0.271725744, 0.170743689, 0.0547061712, 0.0348569378,
          0.0700376853, 0.118935488, 0.064260684, 0.154899463,
          0.204005212, 0.271725744, 0.233463243, 0.0865240917,
          0.102610357, 0.0984385535, 0.134412557, 0.0701471642,
          0.161174044, 0.127519667, 0.220753625, 0.272106111,
          0.136267215, 0.235420793, 0.158698216, 0.090997614,
          0.0715262741, 0.0324492492, 0.0830067694, 0.272106111,
          0.272106111, 0.16343604, 0.178362206, 0.0865519866,
          0.0803433061, 0.0358118974, 0.0722350031, 0.126951769,
          0.272106111, 0.272106111, 0.153051361, 0.230931059,
          0.105144456, 0.0558287762, 0.0262754466, 0.0214455836,
          0.0970168337, 0.272106111, 0.272106111, 0.126310289,
          0.168863133, 0.0588963926, 0.0933787525, 0.0559136495,
          0.0257256329, 0.0982856974, 0.307890743, 0.307890743,
          0.162893802, 0.169793621, 0.236714333, 0.0282525979,
          0.00871518068, 0.0080244178, 0.00438947789, 0.178916842,
          0.301576614, 0.263724923, 0.114636548, 0.166854337,
          0.0458642915, 0.0228943434, 0.0486147888, 0.1412839,
          0.307890743, 0.307890743, 0.0885727778, 0.0865963548,
          0.0866096094, 0.017648112, 0.0108198589, 0.0251050238,
          0.0219558515, 0.307890743, 0.307890743, 0.0908907652,
          0.0351633765, 0.0359349288, 0.0823126882, 0.141640782,
          0.200476915, 0.314539373, 0.348079652, 0.129583463,
          0.0639885217, 0.0181325991, 0.0238479804, 0.0565378144,
          0.0816833228, 0.128081053, 0.233011082, 0.348079652,
          0.244621083, 0.0937561765, 0.0186754819, 0.0233506989,
          0.00415833713, 0.0315844268, 0.0702302679, 0.247254342,
          0.348079652, 0.111809485, 0.0450212806, 0.0234888326,
          0.00153844582, 0.0106638661, 0.0224224702, 0.0884337425,
          0.172445446, 0.348079652, 0.210006386, 0.0961858258,
          0.0185535811, 0.00290663191, 0.0282486212, 0.0270741731,
          0.0478076115, 0.121470407, 0.407522917, 0.151149139,
          0.0422066227, 0.0119642261, 0.0091872979, 0.0203144364,
          0.0169053208, 0.086085856, 0.159075543, 0.407522917,
          0.215667844, 0.0741601586, 0.0491548702, 0.0179754589,
          0.0156879555, 0.00864451844, 0.0384260975, 0.123560943,
          0.407522917, 0.126217574, 0.0507224053, 0.0070173908,
          0.00404309388, 0.010786863, 0.0114458771, 0.101575986,
          0.297044158, 0.407522917, 0.204177096, 0.141870633,
          0.0609504879, 0.00848574284, 0.020178711, 0.0187538322,
          0.0646946132, 0.119030543, 0.370357275, 0.248082563,
          0.0783782601, 0.0906239748, 0.0371745825, 0.0542585403,
          0.0409011953, 0.0319289491, 0.083370544, 0.370357275,
          0.292082191, 0.0561666563, 0.0894853994, 0.0824605376,
          0.0287365485, 0.0194454379, 0.0826567858, 0.225364208,
          0.370357275, 0.221202523, 0.115975559, 0.0439641923,
          0.0238747671, 0.0990192294, 0.0890987739, 0.0659625456,
          0.149974182, 0.370357275, 0.233213305, 0.0371723473,
          0.0355172977, 0.100290783, 0.106209233, 0.0675106943,
          0.0694358647, 0.119492382, 0.329900831, 0.329900831,
          0.050886482, 0.0838269666, 0.134909675, 0.0207495987,
          0.00951264519, 0.0236519054, 0.0468130447, 0.329900831,
          0.196948916, 0.016029587, 0.0143642295, 0.016990684,
          0.181424648, 0.167386204, 0.169391394, 0.210044891,
          0.329900831, 0.329900831, 0.0520689525, 0.0616321899,
          0.163857013, 0.0328591838, 0.0219269339, 0.0626781285,
          0.218944237, 0.329900831, 0.129922733, 0.0164716188,
          0.00898787286, 0.0191524923, 0.0258999169, 0.0230917856,
          0.0301702414, 0.113515571, 0.282658577, 0.154358968,
          0.0432083011, 0.0151394652, 0.00783948321, 0.0489322022,
          0.0332913809, 0.0624322854, 0.169417948, 0.282658577,
          0.203670278, 0.0901409388, 0.027709106, 0.0470329039,
          0.184426218, 0.13597548, 0.169059724, 0.176118076, 0.282658577,
          0.233874023, 0.138448253, 0.0616853833, 0.0850518122,
          0.266323358, 0.217223063, 0.268532187, 0.216002494,
          0.202627957, 0.211639047, 0.106357656, 0.129888222,
          0.282658577, 0.0413294658, 0.0113020008, 0.0262333695,
          0.110343084, 0.281804532, 0.0939828679, 0.0408671126,
          0.0228656027, 0.0394986011, 0.0309682563, 0.0186243355,
          0.0401617587, 0.212367043, 0.281804532, 0.147185802,
          0.0699382275, 0.0207803715, 0.0123390509, 0.181889787,
          0.125542015, 0.252160698, 0.144563571, 0.277424306,
          0.141712517, 0.158049881, 0.15700081, 0.279101402, 0.195352748,
          0.106909044, 0.266199887, 0.196223959, 0.281804532,
          0.183338299, 0.191505745, 0.122740805, 0.232995197,
          0.0681226775, 0.0388606302, 0.0705678686, 0.18740581,
          0.291127414, 0.192708984, 0.0783350095, 0.0101972865,
          0.0248629544, 0.067450732, 0.0383706391, 0.0765861869,
          0.156892881, 0.291127414, 0.137732536, 0.0256282054,
          0.00410276232, 0.0397779867, 0.211536065, 0.157908276,
          0.291127414, 0.233834028, 0.291127414, 0.229519665,
          0.0981432274, 0.0578955039, 0.124224439, 0.10864234,
          0.0959214792, 0.226602331, 0.291127414, 0.291127414,
          0.244913772, 0.0197287276, 0.0139753679, 0.0469921045,
          0.0509976335, 0.0669900104, 0.0981495231, 0.21548669,
          0.33765316, 0.218774125, 0.0399003215, 0.00977574289,
          0.0437777154, 0.0114407223, 0.0108466754, 0.0334638059,
          0.257040441, 0.33765316, 0.0646348447, 0.0160465539,
          0.00249002781, 0.00837598648, 0.0281906445, 0.0557774752,
          0.133443192, 0.326223165, 0.33765316, 0.316628009,
          0.0415367223, 0.0436273105, 0.0311612636, 0.00971206278,
          0.0107421102, 0.0494719744, 0.33765316, 0.33765316,
          0.0612538271, 0.0159189776, 0.015889341, 0.0101608103,
          0.247944593, 0.219140157, 0.16685684, 0.129137516, 0.231880009,
          0.16553925, 0.160481885, 0.0978165865, 0.124754913,
          0.247944593, 0.247944593, 0.247944593, 0.171338513,
          0.129244834, 0.141269535, 0.103829026, 0.131853521,
          0.247944593, 0.0809381008, 0.110037401, 0.0392328948,
          0.0749934539, 0.165595099, 0.0890858173, 0.0350249298,
          0.0621084236, 0.118051887, 0.190436736, 0.247944593,
          0.247944593, 0.112241037, 0.164123327, 0.103671819,
          0.0847222731, 0.114020765, 0.247944593, 0.179414943,
          0.23219566, 0.23219566, 0.143449515, 0.097168602, 0.0683592409,
          0.102853082, 0.0938068479, 0.188455179, 0.23219566, 0.23219566,
          0.23219566, 0.178031594, 0.189497858, 0.09982761, 0.149767756,
          0.136035919, 0.23219566, 0.228152841, 0.23219566, 0.23219566,
          0.082274124, 0.0473756604, 0.0207530372, 0.0444256142,
          0.0544732288, 0.200962782, 0.228067547, 0.23219566, 0.23219566,
          0.0936601907, 0.062654227, 0.0275232829, 0.0542232879,
          0.0760976821, 0.192931339, 0.237329438, 0.237329438,
          0.237329438, 0.237329438, 0.227259383, 0.126527071,
          0.099750258, 0.132250473, 0.205792755, 0.211610094,
          0.160299107, 0.237329438, 0.237329438, 0.237329438,
          0.164488137, 0.01976238, 0.0335571319, 0.0838439763,
          0.237329438, 0.237329438, 0.237329438, 0.110527605,
          0.0523839854, 0.0414906368, 0.0539884977, 0.103350043,
          0.192311898, 0.231279179, 0.134145394, 0.163400367,
          0.079721041, 0.0499927141, 0.0397951491, 0.0170058403,
          0.0423906371, 0.113490492, 0.1582091, 0.12711893, 0.253719687,
          0.267023504, 0.267023504, 0.267023504, 0.080960229,
          0.161639929, 0.127513349, 0.107942253, 0.0459728539,
          0.186020777, 0.267023504, 0.267023504, 0.0457226448,
          0.027374709, 0.0714681149, 0.0595588386, 0.225236103,
          0.152076229, 0.171564728, 0.111902326, 0.124445535,
          0.0897621289, 0.0479233302, 0.113392018, 0.172017828,
          0.267023504, 0.127564445, 0.218011782, 0.135473147,
          0.201160744, 0.0241620168, 0.0206512474, 0.0719487593,
          0.20553115 ]
      - [ 0.160216168, 0.0938360021, 0.0966276675, 0.117057092,
          0.207785651, 0.229773089, 0.0869349465, 0.0775872171,
          0.0885024294, 0.0592890792, 0.168255538, 0.346754551,
          0.297265142, 0.118899092, 0.0825317651, 0.0327431373,
          0.0426946431, 0.0425252728, 0.0568822138, 0.050511986,
          0.043496903, 0.074866876, 0.116861984, 0.0854888335,
          0.0212660916, 0.0310828928, 0.0497295856, 0.0316943973,
          0.258844584, 0.349877894, 0.349877894, 0.349877894, 0.28427878,
          0.0141372755, 0.0228701029, 0.0245174747, 0.0208660401,
          0.148615152, 0.259391993, 0.144144118, 0.185564503,
          0.0166641772, 0.0133147938, 0.0115405638, 0.0189785641,
          0.0569643602, 0.21412316, 0.287013531, 0.184637502,
          0.334630609, 0.0458747931, 0.041041486, 0.0213181991,
          0.0478202812, 0.00688571157, 0.157605663, 0.288748056,
          0.334630609, 0.334630609, 0.0789130554, 0.0141535318,
          0.00796435401, 0.00627368409, 0.0105008138, 0.102029741,
          0.161076516, 0.267655194, 0.334630609, 0.0676416233,
          0.0483218879, 0.0227763783, 0.018997537, 0.117873371,
          0.132143497, 0.118920676, 0.139197081, 0.286121041,
          0.197298452, 0.0636419058, 0.0248754621, 0.0708503127,
          0.286121041, 0.100964956, 0.0627195686, 0.286121041,
          0.286121041, 0.286121041, 0.0958120823, 0.0601653755,
          0.164464608, 0.0334564038, 0.0418487191, 0.0545382462,
          0.20379281, 0.286121041, 0.124824695, 0.0586139597,
          0.0460471548, 0.0307775773, 0.116217658, 0.126760036,
          0.0725674704, 0.286121041, 0.286121041, 0.18318969,
          0.0889119059, 0.132632717, 0.106752925, 0.233424276,
          0.131228566, 0.0652962476, 0.275991529, 0.292174786,
          0.274192154, 0.0831055716, 0.0554179624, 0.146833047,
          0.0443816334, 0.0589786433, 0.0423537828, 0.187148675,
          0.292174786, 0.25711593, 0.0300683845, 0.0282649472,
          0.0774847567, 0.0921031684, 0.140657663, 0.0724467859,
          0.174352214, 0.292174786, 0.292174786, 0.0889905244,
          0.102972254, 0.108449034, 0.0113329403, 0.0358948596,
          0.0422219373, 0.11945238, 0.292174786, 0.287511557,
          0.0261380356, 0.0144904619, 0.0091007743, 0.00913361274,
          0.00817197468, 0.0156750977, 0.0390260629, 0.0772482306,
          0.0226386841, 0.00432987697, 0.0099231191, 0.0101705557,
          0.00471055973, 0.0413994268, 0.0776405782, 0.482469231,
          0.482469231, 0.151924193, 0.00212280103, 0.00628398638,
          0.0054207542, 0.00748105068, 0.0153873926, 0.0325160995,
          0.0637922287, 0.105406038, 0.0231768638, 0.00502111297,
          0.00395771675, 0.00667935982, 0.00352970581, 0.00604957761,
          0.0194202997, 0.482469231, 0.482469231, 0.0825527981,
          0.011087466, 0.00310185109, 0.00327011361, 0.0010831214,
          0.0313694365, 0.0501394384, 0.384772748, 0.384772748,
          0.0770038366, 0.00232227962, 0.00147235324, 0.000837469066,
          0.00555760134, 0.0176759418, 0.0253595505, 0.182451293,
          0.384772748, 0.058948867, 0.0100540975, 0.00743255764,
          0.00668076472, 0.00701927161, 0.00223301793, 0.0179442689,
          0.323371142, 0.384772748, 0.0822016969, 0.0142656136,
          0.012735229, 0.0173106138, 0.12105979, 0.0319953151,
          0.0430565514, 0.140533686, 0.384772748, 0.129714966,
          0.0496744066, 0.106610529, 0.167952731, 0.0185494423,
          0.0212178156, 0.0460976288, 0.265231967, 0.27649948,
          0.0589893945, 0.0207801089, 0.0285325646, 0.0149219781,
          0.0459632762, 0.0744795576, 0.0769986287, 0.27649948,
          0.27649948, 0.138889447, 0.0713388994, 0.083277002,
          0.0289413929, 0.215336248, 0.133417457, 0.155623153,
          0.27649948, 0.27649948, 0.0842660144, 0.0354080871,
          0.132261947, 0.207573235, 0.174467847, 0.162556455,
          0.173228994, 0.27649948, 0.27649948, 0.224109352, 0.0732877403,
          0.138350651, 0.138510585, 0.0438384227, 0.0993381515,
          0.0716083869, 0.115687311, 0.375695884, 0.206790239,
          0.0731364936, 0.0650567338, 0.0339876302, 0.0145739904,
          0.0303463843, 0.0369889997, 0.113826856, 0.375695884,
          0.182476476, 0.0180805828, 0.0155649418, 0.00890650321,
          0.151716709, 0.123354167, 0.0770376176, 0.196567655,
          0.375695884, 0.285867095, 0.0647229105, 0.0981720239,
          0.10894601, 0.0567662865, 0.050835073, 0.0348762497,
          0.239815816, 0.375695884, 0.20640935, 0.0124722105,
          0.0207056347, 0.0224797502, 0.00656056404, 0.00994706992,
          0.0292826053, 0.051838778, 0.0959574133, 0.0244403109,
          0.00797540694, 0.00392295979, 0.00593411364, 0.00680291373,
          0.00920194667, 0.0368138477, 0.257107854, 0.544913948,
          0.200960487, 0.045807898, 0.0213013776, 0.00953257922,
          0.00426767068, 0.00455466891, 0.0192169286, 0.0275264736,
          0.0969278365, 0.0163654666, 0.00735862879, 0.00301504321,
          0.00365655473, 0.0465268977, 0.0686063021, 0.123563029,
          0.117443472, 0.544913948, 0.469047695, 0.0578186847,
          0.0487071387, 0.0625475422, 0.019530464, 0.0248614792,
          0.0713513345, 0.162941769, 0.296322763, 0.104039483,
          0.0331375189, 0.02649392, 0.0352861136, 0.255802661,
          0.0940568969, 0.214043424, 0.155552521, 0.296322763,
          0.115270719, 0.0644195154, 0.165856078, 0.296322763,
          0.0538475327, 0.0960381776, 0.226999655, 0.10521964,
          0.296322763, 0.169073552, 0.030050518, 0.0382486768,
          0.0424580686, 0.15934673, 0.163208961, 0.296322763,
          0.296322763, 0.14865458, 0.095834069, 0.0514275841,
          0.080344893, 0.185901344, 0.241349801, 0.164399073,
          0.216554239, 0.200931042, 0.11151924, 0.0654074922, 0.02228944,
          0.114570729, 0.241349801, 0.189773589, 0.237003177,
          0.202997565, 0.241349801, 0.199336424, 0.130060583,
          0.0314248838, 0.0812618658, 0.143219471, 0.156420022,
          0.139012247, 0.241349801, 0.241349801, 0.0957225189,
          0.0881613269, 0.0436091982, 0.0406329557, 0.169929177,
          0.174141243, 0.241349801, 0.241349801, 0.241349801,
          0.150953323, 0.107609585, 0.0446673147, 0.037412364,
          0.0869920254, 0.14161478, 0.188062996, 0.166173264,
          0.245948866, 0.245948866, 0.181600451, 0.0353788882,
          0.0729308203, 0.112240493, 0.0521343574, 0.0615775771,
          0.121431224, 0.245948866, 0.245948866, 0.105447881,
          0.0197148938, 0.0364069939, 0.0610079318, 0.222788379,
          0.245948866, 0.245948866, 0.245948866, 0.183384538,
          0.158778891, 0.0659319013, 0.0836582556, 0.140951186,
          0.170856252, 0.106300525, 0.201750845, 0.245948866,
          0.224289954, 0.0898381099, 0.0741753727, 0.114791751,
          0.20659636, 0.00189761922, 0.0148127964, 0.0293214638,
          0.0282962546, 0.0437267125, 0.014291401, 0.0138978949,
          0.00572189596, 0.00195457716, 0.0390193872, 0.223459765,
          0.359210551, 0.178861067, 0.359210551, 0.212151229,
          0.0229273774, 0.040178854, 0.0576397553, 0.00263536908,
          0.192126036, 0.247442767, 0.127493203, 0.128963009,
          0.0300387032, 0.017763136, 0.011281454, 0.00154137448,
          0.0211433377, 0.359210551, 0.359210551, 0.359210551,
          0.258335143, 0.103531159, 0.0192409419, 0.0407578871,
          0.0280545093, 0.0734807476, 0.189947575, 0.276532829,
          0.153324574, 0.274557114, 0.130861148, 0.0138535239,
          0.0641838163, 0.0643138364, 0.0661483109, 0.210208908,
          0.276532829, 0.276532829, 0.173229888, 0.0753613487,
          0.0543370061, 0.115935087, 0.0509002209, 0.0390307158,
          0.276532829, 0.276532829, 0.216009602, 0.128442317,
          0.0591813773, 0.0247316267, 0.0729606375, 0.0445312783,
          0.0797645971, 0.243059605, 0.276532829, 0.223247722,
          0.145779178, 0.0935557038, 0.0701029226, 0.175223678,
          0.110604718, 0.0373576134, 0.186172694, 0.300704837,
          0.300704837, 0.124696694, 0.0749490038, 0.0810906067,
          0.0465961955, 0.0325772688, 0.114471778, 0.285051852,
          0.300704837, 0.288416326, 0.121869735, 0.0829769075,
          0.0629687831, 0.0418889299, 0.013971962, 0.0806064531,
          0.232660756, 0.300704837, 0.196361542, 0.0999136269,
          0.0823345408, 0.0710855499, 0.0817937478, 0.105512947,
          0.071430631, 0.244735807, 0.300704837, 0.1995444, 0.0954062641,
          0.0889177248, 0.101296306, 0.0221219417, 0.035406772,
          0.22130239, 0.300165385, 0.300165385, 0.234368801, 0.146411344,
          0.132782534, 0.0819973424, 0.0987430662, 0.0899678245,
          0.228212535, 0.167918086, 0.300165385, 0.214893416,
          0.129215404, 0.0629553869, 0.0679866523, 0.0973142982,
          0.171049774, 0.0679196343, 0.261521727, 0.300165385,
          0.26054275, 0.0735381842, 0.0704148412, 0.081902951,
          0.0233005229, 0.0222292393, 0.0352588594, 0.0858874843,
          0.300165385, 0.138052508, 0.0349132419, 0.0127868569,
          0.00835950393, 0.00966759119, 0.0165471341 ]
      - [ 0.0313811637, 0.023495391, 0.0659543946, 0.0960459784,
          0.144939095, 0.0905486271, 0.0476831533, 0.0349547938,
          0.0308104157, 0.0147497496, 0.0676085502, 0.251620293,
          0.36839363, 0.370262593, 0.147604451, 0.14014262, 0.047534138,
          0.0190845467, 0.0159980897, 0.0235786457, 0.0575797893,
          0.16972886, 0.264164478, 0.191345379, 0.108202949,
          0.0454118289, 0.0175653342, 0.0147774424, 0.0448245183,
          0.231318429, 0.370262593, 0.370262593, 0.208567247,
          0.130821139, 0.136197671, 0.00888899062, 0.0391555019,
          0.12381041, 0.252464861, 0.320601255, 0.365764916, 0.100691363,
          0.13792707, 0.0326482095, 0.0181258526, 0.172139719,
          0.190972865, 0.0991571769, 0.103505068, 0.196979553,
          0.0327341408, 0.0458939336, 0.0197320171, 0.0552375875,
          0.0289766565, 0.0676619411, 0.163985208, 0.365764916,
          0.365764916, 0.112678185, 0.054164581, 0.0474733897,
          0.0178284366, 0.0878106281, 0.131263837, 0.0597836524,
          0.157703519, 0.365764916, 0.0427210629, 0.0556780435,
          0.0546094216, 0.058277335, 0.22626245, 0.22626245,
          0.0624214672, 0.064328596, 0.0456782319, 0.0646622851,
          0.0385405719, 0.0642420053, 0.157179534, 0.22626245,
          0.185129717, 0.156113386, 0.17851375, 0.173326761, 0.214911759,
          0.189342648, 0.187108934, 0.22626245, 0.197379991, 0.22626245,
          0.0788535997, 0.14786993, 0.0837947205, 0.0889707804,
          0.112686649, 0.12816757, 0.181148633, 0.17047517, 0.154690787,
          0.0912700519, 0.140973076, 0.172193855, 0.22626245, 0.22626245,
          0.22626245, 0.22626245, 0.182831436, 0.146615997, 0.167550847,
          0.216915235, 0.216623679, 0.120187514, 0.153001085,
          0.130128026, 0.186786979, 0.219968155, 0.117329307,
          0.111440122, 0.128080532, 0.17249386, 0.0878852233,
          0.101900995, 0.219968155, 0.219968155, 0.0968090668,
          0.103865191, 0.0746666044, 0.161120638, 0.219968155,
          0.219968155, 0.211600542, 0.17317915, 0.16306749, 0.211296275,
          0.139076814, 0.0724039972, 0.219968155, 0.219968155,
          0.188252524, 0.0939193591, 0.107620902, 0.154504001,
          0.0194321442, 0.0256781839, 0.0355485789, 0.0861367956,
          0.201236576, 0.169324651, 0.0633712411, 0.0299421418,
          0.0230384618, 0.00997411832, 0.0241558217, 0.0876681134,
          0.366171926, 0.366171926, 0.247563452, 0.0491951071,
          0.0684179589, 0.00773773994, 0.0409969054, 0.042974811,
          0.0340162478, 0.13698414, 0.278265029, 0.172536179,
          0.0766522363, 0.042355448, 0.0578381792, 0.0239558779,
          0.0484646559, 0.0608499758, 0.366171926, 0.366171926,
          0.366171926, 0.120839849, 0.0298784599, 0.0316174626,
          0.0184695628, 0.0403328352, 0.0505999029, 0.340373248,
          0.340373248, 0.161872953, 0.0138283605, 0.0340643115,
          0.0119860182, 0.0549036153, 0.0796198547, 0.0392561853,
          0.119621567, 0.309084684, 0.0698744655, 0.0837874413,
          0.0940214172, 0.0352221578, 0.03271899, 0.0252027921,
          0.0300142393, 0.27001369, 0.340373248, 0.340373248,
          0.102300137, 0.124126911, 0.0790462941, 0.102920294,
          0.0643741861, 0.0412364751, 0.0881493911, 0.277962387,
          0.169859469, 0.116530232, 0.228516281, 0.233408257,
          0.111815274, 0.139617994, 0.0706638917, 0.116994321,
          0.109212242, 0.111657485, 0.230400309, 0.220364273,
          0.0832624361, 0.0914076418, 0.092722334, 0.112458773,
          0.135971591, 0.203756124, 0.178719521, 0.153119162,
          0.118908301, 0.100856505, 0.230400309, 0.175593644,
          0.128134921, 0.0640110075, 0.128119081, 0.149562046,
          0.230400309, 0.230400309, 0.230400309, 0.221418887,
          0.230400309, 0.213700011, 0.153154716, 0.154351994,
          0.140525416, 0.164655387, 0.230400309, 0.217426836,
          0.0632996857, 0.103629254, 0.123045862, 0.199752867,
          0.259964645, 0.259964645, 0.13734971, 0.0869550258,
          0.0797016919, 0.0849227756, 0.199804232, 0.0818697065,
          0.259964645, 0.259964645, 0.197489157, 0.0863940343,
          0.0742315352, 0.0903377831, 0.137195989, 0.182563335,
          0.215171814, 0.259964645, 0.259964645, 0.233241767,
          0.0713104159, 0.0491949357, 0.109842457, 0.0360543355,
          0.125438645, 0.0541872159, 0.259964645, 0.259964645,
          0.20631367, 0.0534237325, 0.0307950582, 0.0380472243,
          0.0617484264, 0.035070885, 0.0549647063, 0.145067766,
          0.271080405, 0.132515654, 0.0993444696, 0.0397236571,
          0.0615265891, 0.071557261, 0.0613293089, 0.165503621,
          0.271080405, 0.271080405, 0.271080405, 0.271080405,
          0.0628634468, 0.059483774, 0.048264578, 0.0226950161,
          0.0525790751, 0.0786813125, 0.271080405, 0.0963133946,
          0.0501000136, 0.0258494169, 0.0390720628, 0.122517154,
          0.109093584, 0.271080405, 0.271080405, 0.271080405,
          0.271061331, 0.224576145, 0.17905803, 0.146974072,
          0.0891563296, 0.0536338575, 0.107957378, 0.23138611,
          0.23138611, 0.23138611, 0.229623482, 0.170377091, 0.104334474,
          0.149431258, 0.108278655, 0.0723761097, 0.0746276528,
          0.106329225, 0.117602475, 0.113734901, 0.23138611, 0.23138611,
          0.167662367, 0.107132219, 0.217198417, 0.23138611, 0.194577128,
          0.179715529, 0.164707989, 0.148433357, 0.164210036,
          0.172583014, 0.218654454, 0.23138611, 0.172916189, 0.12279021,
          0.0862030014, 0.103485107, 0.113504499, 0.195482343,
          0.207755864, 0.164562106, 0.111352548, 0.0383417346,
          0.0976797417, 0.0969241261, 0.120302111, 0.231840566,
          0.231840566, 0.225586772, 0.15884766, 0.0932211578,
          0.0466955788, 0.0793967471, 0.103174761, 0.125026405,
          0.181575567, 0.211970985, 0.203067556, 0.231840566,
          0.231840566, 0.173898607, 0.183213353, 0.0961366594,
          0.0730320513, 0.133129716, 0.223044887, 0.212556377,
          0.205319166, 0.19378683, 0.161508828, 0.127937034, 0.106591135,
          0.127746955, 0.205334112, 0.208348304, 0.15662992, 0.101554334,
          0.0507242531, 0.0598205216, 0.172348365, 0.204473525,
          0.147998288, 0.158048823, 0.182403341, 0.0463680066,
          0.0227492545, 0.0367707536, 0.181417853, 0.25597018,
          0.202008605, 0.0852165669, 0.147009522, 0.123393267,
          0.23405014, 0.136765376, 0.0846914947, 0.099784486,
          0.126224279, 0.159695551, 0.230823815, 0.25597018, 0.25597018,
          0.210698962, 0.0838627294, 0.114281856, 0.133742332,
          0.201009348, 0.175948948, 0.12754716, 0.25597018, 0.25597018,
          0.0098944474, 0.0168380942, 0.0232034046, 0.0411176123,
          0.241654605, 0.0428152196, 0.00813193433, 0.00900997221,
          0.0093214903, 0.11897935, 0.236221164, 0.333644241,
          0.272620201, 0.231352642, 0.107647195, 0.0537174605,
          0.121725917, 0.109646536, 0.00616068859, 0.132664293,
          0.178848207, 0.123738185, 0.311239749, 0.0495753773,
          0.00875404011, 0.00243333913, 0.0013113264, 0.0779056251,
          0.333644241, 0.333644241, 0.333644241, 0.265565366,
          0.0808637813, 0.0346801244, 0.014596899, 0.0174802095,
          0.206248865, 0.212023512, 0.244094476, 0.21389465, 0.244094476,
          0.0911254436, 0.0992147028, 0.0965453312, 0.150749177,
          0.199456468, 0.210792974, 0.244094476, 0.13009809, 0.168502256,
          0.0767156482, 0.116077103, 0.0562317558, 0.119224034,
          0.131544605, 0.244094476, 0.244094476, 0.244094476,
          0.244094476, 0.0566534065, 0.0619438887, 0.0322869979,
          0.0717570856, 0.161459982, 0.167237341, 0.232247829,
          0.13239786, 0.173602849, 0.096540302, 0.0959556475,
          0.0862675756, 0.13646315, 0.182095483, 0.243990332,
          0.243990332, 0.179066122, 0.1451592, 0.0756795257,
          0.0684419796, 0.0647310317, 0.105599947, 0.132484421,
          0.21699439, 0.243990332, 0.227062345, 0.099606663,
          0.0768301338, 0.0812609643, 0.162394851, 0.134681419,
          0.127201647, 0.171752349, 0.243990332, 0.143937975,
          0.0962884426, 0.126805216, 0.148549944, 0.200192645,
          0.175972417, 0.0972536057, 0.143655956, 0.243990332,
          0.19093819, 0.0675255582, 0.1265589, 0.194075122, 0.243990332,
          0.18851462, 0.194976881, 0.230368853, 0.230368853, 0.230368853,
          0.0989791006, 0.115117334, 0.118182823, 0.230368853,
          0.230368853, 0.182784587, 0.128370345, 0.176309958,
          0.103995807, 0.0747483596, 0.0934460536, 0.0529469624,
          0.230368853, 0.230368853, 0.168371752, 0.195176825,
          0.230368853, 0.230368853, 0.119910434, 0.12876831, 0.14766413,
          0.230368853, 0.230368853, 0.116224021, 0.0813005269,
          0.178594634, 0.147154272, 0.119090073, 0.0625328496,
          0.0312791169, 0.0465691462, 0.125975072 ]
      - [ 0.130520239, 0.198690176, 0.24456495, 0.156878203, 0.171527579,
          0.0535417013, 0.0228347387, 0.0787785277, 0.206342295,
          0.121542282, 0.156231016, 0.13630034, 0.221012473, 0.268167168,
          0.162511796, 0.0462154672, 0.0911144391, 0.0935474485,
          0.0411539376, 0.191251516, 0.289361537, 0.289361537,
          0.289361537, 0.0654745251, 0.0139222816, 0.0451338477,
          0.0546679832, 0.0347813517, 0.107900381, 0.160782874,
          0.289361537, 0.289361537, 0.200256765, 0.0384208933,
          0.0530133359, 0.0306839645, 0.0885747671, 0.0606744289,
          0.0720581487, 0.143128261, 0.225018978, 0.283268869,
          0.183886915, 0.13788873, 0.139149398, 0.0534634702,
          0.0467413031, 0.0765969753, 0.0561421551, 0.276202142,
          0.283268869, 0.283268869, 0.160853699, 0.0852308646,
          0.0206058342, 0.0241484139, 0.0282273777, 0.261878967,
          0.283268869, 0.283268869, 0.0942078754, 0.0564695485,
          0.0498627685, 0.040077284, 0.0461226851, 0.0491755381,
          0.148065656, 0.283268869, 0.283268869, 0.161417052,
          0.100908242, 0.0521094613, 0.0579160005, 0.0503704399,
          0.0336742364, 0.0759590864, 0.334859401, 0.334859401,
          0.241790861, 0.135247782, 0.0645409897, 0.0350711159,
          0.0225608405, 0.00980566721, 0.0420681983, 0.329693079,
          0.228982985, 0.103113227, 0.0576167516, 0.0567649044,
          0.0217965133, 0.0278455131, 0.0411733314, 0.187795609,
          0.334859401, 0.334859401, 0.1977631, 0.101125017, 0.0207424238,
          0.00123259705, 0.00402009068, 0.0104764635, 0.134122297,
          0.334859401, 0.228225216, 0.0456853025, 0.0102325296,
          0.000613078533, 0.0506068282, 0.0310859159, 0.0231711362,
          0.0572966039, 0.341010481, 0.341010481, 0.221909478,
          0.0942267403, 0.0857205912, 0.0386571512, 0.0714571327,
          0.150608554, 0.160319835, 0.165582076, 0.0310728662,
          0.027222069, 0.0238137376, 0.0335949808, 0.0285304915,
          0.0384471603, 0.114021696, 0.341010481, 0.341010481,
          0.341010481, 0.0266897399, 0.00356879947, 0.0108691007,
          0.0477168523, 0.118969359, 0.269787312, 0.306141317,
          0.235676914, 0.029871745, 0.00451301318, 0.00206689374,
          0.0315224342, 0.0112339212, 0.0257880036, 0.121418618,
          0.321691632, 0.321691632, 0.12886484, 0.0091549186,
          0.0122912601, 0.00452179508, 0.00208779518, 0.0110708186,
          0.0366138481, 0.321691632, 0.321691632, 0.171645924,
          0.0208741855, 0.00499816705, 0.00096848642, 0.0294663608,
          0.0284930598, 0.0556893013, 0.236472979, 0.321691632,
          0.261443108, 0.0778835565, 0.0580066852, 0.0165875796,
          0.0576279573, 0.0674750656, 0.0641640648, 0.265684932,
          0.321691632, 0.219631433, 0.122334577, 0.152477399,
          0.0655315295, 0.00890683569, 0.00536991889, 0.0114760492,
          0.297659039, 0.297659039, 0.162386507, 0.0516696051,
          0.0188430473, 0.0160648655, 0.0238843989, 0.016685402,
          0.0428719036, 0.163340017, 0.297659039, 0.211088702,
          0.0799115524, 0.0522993021, 0.0395477526, 0.0469677299,
          0.153372556, 0.199566439, 0.297659039, 0.297659039,
          0.142097414, 0.0653157234, 0.0798920318, 0.0654203296,
          0.0265351385, 0.157809123, 0.236767024, 0.297659039,
          0.297659039, 0.267320842, 0.0576261878, 0.0512241572,
          0.0506832935, 0.010519214, 0.0149520682, 0.0564754754,
          0.179775596, 0.365923733, 0.206301078, 0.0511134788,
          0.0310899373, 0.0167681538, 0.000647649344, 0.00147689111,
          0.0147640109, 0.177887663, 0.365923733, 0.0803934932,
          0.00647977367, 0.00106801267, 4.84075026e-05, 0.00504408311,
          0.0636223555, 0.116494544, 0.365923733, 0.365923733,
          0.266987294, 0.0340227894, 0.0265948065, 0.0201223418,
          0.000333922333, 0.00248219166, 0.0350067988, 0.334288895,
          0.365923733, 0.0450647287, 0.000414404523, 0.00105095736,
          8.95106859e-05, 0.0439525209, 0.0445316061, 0.160060853,
          0.421714544, 0.421714544, 0.106332459, 0.002361021,
          0.000135239039, 0.0220746621, 0.0825550705, 0.0744896159,
          0.160813898, 0.233519018, 0.148589656, 0.0252412148,
          0.0218124967, 0.00603936054, 0.0603898428, 0.032729771,
          0.0394771062, 0.184716791, 0.421714544, 0.421714544,
          0.0238973871, 0.00309984107, 0.0092376573, 0.0200873725,
          0.123365633, 0.0946878716, 0.161275104, 0.122406252,
          0.104345389, 0.018289037, 0.035214778, 0.0287478585,
          0.0846347287, 0.119639158, 0.10684298, 0.106119305,
          0.127724767, 0.232367709, 0.232367709, 0.1328253, 0.122639559,
          0.0562033802, 0.211930454, 0.180977285, 0.18791309,
          0.232367709, 0.232367709, 0.121028632, 0.21516645, 0.232367709,
          0.16527307, 0.142420426, 0.177794829, 0.144542456, 0.128969714,
          0.0695599765, 0.154410377, 0.115960181, 0.108050779,
          0.0693612322, 0.214152798, 0.232367709, 0.232367709,
          0.232367709, 0.0893594921, 0.0908965617, 0.148799509,
          0.159317002, 0.132926717, 0.102400281, 0.226489946,
          0.237070546, 0.237070546, 0.237070546, 0.0690595135,
          0.0893908739, 0.168115661, 0.110291108, 0.0469873026,
          0.237070546, 0.237070546, 0.237070546, 0.237070546,
          0.128496468, 0.0290234145, 0.122126766, 0.096222885,
          0.110897608, 0.237070546, 0.237070546, 0.237070546,
          0.0913025811, 0.0362791643, 0.0563968457, 0.126442403,
          0.0997994319, 0.0802339166, 0.199353948, 0.237070546,
          0.212333113, 0.131259024, 0.0383076817, 0.0225048456,
          0.191479877, 0.149956539, 0.0343497321, 0.182831004,
          0.210452825, 0.274997324, 0.274997324, 0.223495767,
          0.0520410128, 0.0874365717, 0.135342479, 0.0151493428,
          0.0186685491, 0.0768528581, 0.274997324, 0.274997324,
          0.0571051128, 0.0147976428, 0.00761493389, 0.0415476486,
          0.0956971794, 0.188891336, 0.274997324, 0.227532506,
          0.274997324, 0.115911238, 0.0644652098, 0.148334846, 0.245885,
          0.0430074483, 0.162138537, 0.274997324, 0.162123024,
          0.188355818, 0.0640540123, 0.0335714296, 0.00840627216,
          0.0821957886, 0.0521034449, 0.0365514047, 0.0527604818,
          0.129631698, 0.153279901, 0.0159550309, 0.00737419445,
          0.012969736, 0.024348719, 0.108726896, 0.0430799946,
          0.050149776, 0.0262490027, 0.043792326, 0.00673318328,
          0.0196878444, 0.0144326938, 0.0518275425, 0.191692382,
          0.388651818, 0.388651818, 0.148662493, 0.146463528,
          0.0285512917, 0.0318030007, 0.0209977925, 0.0497223921,
          0.332970947, 0.388651818, 0.388651818, 0.160296008,
          0.291454613, 0.0356342383, 0.0615411811, 0.029530298,
          0.0954401121, 0.138999254, 0.29478696, 0.213085264,
          0.241499081, 0.0627476946, 0.115098268, 0.159202501,
          0.188868493, 0.0934499875, 0.247907221, 0.29478696, 0.29478696,
          0.29478696, 0.222389504, 0.165867046, 0.141627774, 0.275747776,
          0.232298315, 0.0595480129, 0.0737509653, 0.0323875323,
          0.0574903823, 0.0481646806, 0.0134596052, 0.0135207055,
          0.0542135984, 0.0392698906, 0.124663301, 0.187425628,
          0.16271612, 0.118628673, 0.0816580579, 0.0300290491,
          0.0192932226, 0.123905621, 0.126380995, 0.154195458,
          0.275708735, 0.275708735, 0.275708735, 0.199385241,
          0.0657828599, 0.0474129654, 0.138577417, 0.253231138,
          0.139220119, 0.275708735, 0.275708735, 0.236048251,
          0.185829371, 0.0532562695, 0.0340284817, 0.165418953,
          0.275708735, 0.0564932711, 0.13040787, 0.191896915,
          0.185617819, 0.119032383, 0.0311669521, 0.0230885576,
          0.0593255274, 0.169316113, 0.045152612, 0.0823665336,
          0.14358595, 0.172991619, 0.128651649, 0.052144751,
          0.0382974483, 0.0327639692, 0.161903605, 0.108207546,
          0.166997522, 0.300481647, 0.193891838, 0.152427316,
          0.0614946671, 0.035628181, 0.078690052, 0.193026796,
          0.16879712, 0.300481647, 0.300481647, 0.300481647, 0.300481647,
          0.0909562111, 0.0337081961, 0.00881986041, 0.110049494,
          0.0394073278, 0.0409915596, 0.0859378949, 0.0926392898,
          0.120447844, 0.0372033417, 0.0247188397, 0.0150583452,
          0.0521373749, 0.162873134, 0.288370013, 0.272370934,
          0.140668675, 0.300481647, 0.0623339899, 0.0151846856,
          0.0196209997, 0.0971392542, 0.139024809, 0.388848752,
          0.388848752, 0.151733637, 0.129033208, 0.0340213664,
          0.0174547732, 0.0118979448, 0.0457236357, 0.12032, 0.388848752,
          0.388848752, 0.0973821953, 0.139709443, 0.0234407373,
          0.0233952571, 0.0236190576, 0.0468283482, 0.097921297,
          0.308122605, 0.310287118, 0.0732058659, 0.102748193,
          0.0254889857, 0.00762544014, 0.00741413468, 0.0468019918,
          0.0391389355, 0.148853093, 0.178354785, 0.0308277253,
          0.059567865, 0.0204909518, 0.0141557511, 0.010741502,
          0.029513523 ]
      - [ 0.0779602602, 0.131538361, 0.239254221, 0.117192052,
          0.0670185238, 0.082591325, 0.090272896, 0.20875901,
          0.140785247, 0.0652765185, 0.137154996, 0.205849037,
          0.165236428, 0.0911098123, 0.0533279628, 0.0429749079,
          0.067561999, 0.0617540181, 0.143342316, 0.0970601961,
          0.15357101, 0.199840352, 0.182142526, 0.245111093, 0.245111093,
          0.245111093, 0.245111093, 0.141918436, 0.119935893,
          0.185216621, 0.245111093, 0.245111093, 0.245111093,
          0.245111093, 0.126554221, 0.118598461, 0.0582924746,
          0.122901767, 0.203680947, 0.192220032, 0.103594661,
          0.0306856502, 0.0249005798, 0.0339013338, 0.0367511399,
          0.0541309863, 0.0682844594, 0.287317425, 0.310710639,
          0.310710639, 0.144988626, 0.089238219, 0.0308518745,
          0.0193282347, 0.0622646473, 0.0943259224, 0.254612923,
          0.310710639, 0.23575443, 0.15567176, 0.101236187, 0.0539174229,
          0.042117808, 0.0307371411, 0.0577100329, 0.310710639,
          0.310710639, 0.310710639, 0.0863825083, 0.0116219558,
          0.0141415019, 0.0323330015, 0.021127386, 0.0143845892,
          0.142239809, 0.290518254, 0.290518254, 0.143626258,
          0.0692370608, 0.0197069515, 0.00691489456, 0.066152975,
          0.0409483388, 0.041904185, 0.0939040557, 0.138505861,
          0.0639511272, 0.0190612413, 0.0152340112, 0.0396129526,
          0.0666062608, 0.10101226, 0.181845605, 0.290518254,
          0.290518254, 0.102256596, 0.0321249962, 0.0386801027,
          0.0609526113, 0.290518254, 0.290518254, 0.260134548,
          0.247566998, 0.290518254, 0.12996614, 0.0971478745,
          0.115694992, 0.290518254, 0.0499003828, 0.121215001,
          0.153693318, 0.16855599, 0.120815374, 0.0607299097,
          0.00981570501, 0.00654162513, 0.0240307059, 0.0618781634,
          0.284083635, 0.284083635, 0.284083635, 0.159388423,
          0.0547409244, 0.0162933916, 0.0191584583, 0.0322011225,
          0.284083635, 0.255709499, 0.231441364, 0.211234584,
          0.133724138, 0.111241154, 0.0262799002, 0.03348241,
          0.156264737, 0.213682845, 0.284083635, 0.284083635, 0.25045377,
          0.135224164, 0.103521928, 0.0588084348, 0.0806096867,
          0.15302904, 0.0443185233, 0.0244907998, 0.0388992615,
          0.113483906, 0.257404357, 0.257404357, 0.257404357, 0.1345568,
          0.0563739389, 0.0547641106, 0.0461901575, 0.0971416458,
          0.231962427, 0.257404357, 0.257404357, 0.257404357,
          0.153334066, 0.0723307803, 0.039597597, 0.0205565989,
          0.0373159125, 0.0813158825, 0.257404357, 0.257404357,
          0.236539736, 0.070470944, 0.0240137056, 0.0436346978,
          0.0358599685, 0.0885143355, 0.156164527, 0.232895195,
          0.257404357, 0.243241176, 0.198179588, 0.0785731897,
          0.0357760079, 0.0275033414, 0.254946917, 0.280830652,
          0.215230301, 0.228601456, 0.131355345, 0.178273588,
          0.0780459791, 0.0414597243, 0.0190248042, 0.280830652,
          0.280830652, 0.280830652, 0.0685134307, 0.0241073444,
          0.060886357, 0.101738788, 0.0323348455, 0.0249616466,
          0.158425063, 0.16465199, 0.280830652, 0.160591021, 0.108763948,
          0.218759775, 0.0911961794, 0.0277789067, 0.00562223699,
          0.180397555, 0.280830652, 0.280830652, 0.0937204137,
          0.0307199974, 0.0753592476, 0.0809505731, 0.0510221347,
          0.071414791, 0.0939381197, 0.273032516, 0.306422949,
          0.0751410276, 0.0271855947, 0.0398421437, 0.0938312188,
          0.203770459, 0.22095108, 0.135534167, 0.264407128, 0.306422949,
          0.123182572, 0.0575766452, 0.0635689273, 0.201969251,
          0.0252792258, 0.0321680196, 0.0842795596, 0.306422949,
          0.306422949, 0.0881027654, 0.0329909213, 0.0259257331,
          0.060385406, 0.0772807971, 0.113604121, 0.0850809962,
          0.306422949, 0.306422949, 0.15108563, 0.0829592794,
          0.0272343084, 0.0725179911, 0.272741109, 0.199695319,
          0.161124557, 0.228398979, 0.272741109, 0.179319486,
          0.0509164147, 0.0432055742, 0.253668278, 0.166390106,
          0.0909863114, 0.0985917151, 0.150230661, 0.260926813,
          0.164839566, 0.0966395438, 0.0763556734, 0.136654094,
          0.135794789, 0.121504791, 0.0467397198, 0.272741109,
          0.272741109, 0.225777671, 0.0888785869, 0.0326995403,
          0.114255115, 0.0326025039, 0.0233806986, 0.0236356333,
          0.246940807, 0.272741109, 0.176295772, 0.0708105937,
          0.0214072186, 0.0304729249, 0.124551751, 0.0587707087,
          0.107610278, 0.212974489, 0.288123518, 0.288123518, 0.17348437,
          0.0701517537, 0.114739209, 0.0967563912, 0.0562314913,
          0.0802498013, 0.194465086, 0.288123518, 0.231701642,
          0.205062449, 0.125374764, 0.126911655, 0.0673989207,
          0.0411132537, 0.147163108, 0.288123518, 0.288123518,
          0.288123518, 0.0627308711, 0.0196097009, 0.0969576687,
          0.0455621518, 0.0262144078, 0.0504132584, 0.152946532,
          0.288123518, 0.172151238, 0.0713146701, 0.0208196733,
          0.0460558496, 0.0236497428, 0.0148076331, 0.0221864078,
          0.08875487, 0.347932547, 0.107980877, 0.0335463658,
          0.0396288075, 0.0321086645, 0.0322565548, 0.0193693265,
          0.0291001368, 0.347932547, 0.347932547, 0.108750403,
          0.0115928538, 0.0189475305, 0.0285462569, 0.0156703107,
          0.0151709048, 0.0142413974, 0.0857850015, 0.347932547,
          0.128424257, 0.0232208911, 0.00618785201, 0.0110504897,
          0.188625425, 0.299542099, 0.225946248, 0.281092346,
          0.347932547, 0.238135889, 0.0629000291, 0.0303216018,
          0.0955092162, 0.0938868672, 0.0336887762, 0.0703690648,
          0.192405015, 0.261406392, 0.0402002744, 0.0141243841,
          0.0169631541, 0.0276076812, 0.261406392, 0.0845503733,
          0.127580732, 0.120865107, 0.172481775, 0.0717059821,
          0.0608448535, 0.0787000731, 0.103496328, 0.261406392,
          0.261406392, 0.257643163, 0.176112831, 0.261406392,
          0.0899776667, 0.0495872311, 0.0518543161, 0.101785637,
          0.261406392, 0.244568557, 0.261406392, 0.212371245,
          0.194142982, 0.128671885, 0.0926987305, 0.151512817,
          0.242945716, 0.229321659, 0.096860826, 0.0706559196,
          0.161301449, 0.244363531, 0.148170456, 0.0969461575,
          0.114609368, 0.125608221, 0.0254519973, 0.0148939285,
          0.00648175925, 0.214545488, 0.244363531, 0.10250283,
          0.0453502908, 0.0257952753, 0.0189343058, 0.244363531,
          0.108483039, 0.244363531, 0.244363531, 0.244363531,
          0.233230412, 0.111632317, 0.216435045, 0.244363531,
          0.123620614, 0.00736151123, 0.0683149546, 0.244363531,
          0.244363531, 0.185798988, 0.0625360161, 0.112255879,
          0.223278359, 0.0146198403, 0.012627596, 0.0825264454,
          0.319809347, 0.319809347, 0.319809347, 0.0409858823,
          0.00907027908, 0.0288288388, 0.0143066617, 0.012915221,
          0.0416149534, 0.103068836, 0.319809347, 0.134782672,
          0.0297018178, 0.00910737086, 0.0148699787, 0.0222688504,
          0.0334354378, 0.0468214713, 0.240390927, 0.319809347,
          0.319809347, 0.266996145, 0.0258703437, 0.029984396,
          0.0105676157, 0.0438226536, 0.101289526, 0.204353243,
          0.319809347, 0.219104871, 0.0491574742, 0.00380546413,
          0.00795198698, 0.00800145511, 0.0467415527, 0.0439368971,
          0.057922855, 0.22299923, 0.0661136881, 0.00986518618,
          0.00484442664, 0.00627986388, 0.090373069, 0.288202792,
          0.288202792, 0.285704881, 0.246331319, 0.118669912,
          0.0339304097, 0.0197193436, 0.0447107777, 0.057575047,
          0.236470163, 0.257401705, 0.184417903, 0.282702208,
          0.0959792957, 0.00814446434, 0.00586708589, 0.00844872557,
          0.107095785, 0.288202792, 0.288202792, 0.288202792,
          0.288202792, 0.0823813304, 0.0081095919, 0.0173434876,
          0.0379388705, 0.204377621, 0.23860684, 0.23860684, 0.23860684,
          0.182890505, 0.0612650365, 0.0411187261, 0.0471741818,
          0.0572482347, 0.23860684, 0.185388342, 0.23860684, 0.23860684,
          0.188404068, 0.0631719604, 0.0440646932, 0.0745473057,
          0.14404586, 0.124011256, 0.23860684, 0.23860684, 0.23860684,
          0.228301302, 0.0348296948, 0.00777434325, 0.0254145097,
          0.0502299704, 0.184376255, 0.0938934907, 0.151689604,
          0.195801467, 0.23860684, 0.0976740122, 0.0298099108,
          0.0592119768, 0.223555341, 0.233911872, 0.109254621,
          0.233911872, 0.233911872, 0.225547388, 0.123743922,
          0.0514169298, 0.135946557, 0.233911872, 0.233911872,
          0.0527797006, 0.161017433, 0.219650522, 0.205658093,
          0.159991369, 0.0470549315, 0.118741214, 0.233911872,
          0.215003803, 0.0907665566, 0.136815861, 0.122734673,
          0.175145745, 0.196133316, 0.148314834, 0.16187185, 0.233911872,
          0.186400756, 0.0989915431, 0.137791529, 0.111284815,
          0.187324628, 0.0832277909, 0.101537883, 0.0786180347,
          0.119302243 ]
      - [ 0.0598466694, 0.107888497, 0.131968066, 0.107703775,
          0.290348351, 0.290348351, 0.112222679, 0.0377118699,
          0.0311056562, 0.0823556632, 0.0747678056, 0.127484336,
          0.262828946, 0.290348351, 0.290348351, 0.127636597,
          0.0484702773, 0.0288245529, 0.0360173695, 0.0278739911,
          0.0754286349, 0.150625169, 0.290348351, 0.290348351,
          0.130391374, 0.0335174426, 0.021791596, 0.0715936646,
          0.0698490515, 0.12951538, 0.290348351, 0.290348351,
          0.252631605, 0.0736557245, 0.0219906662, 0.026890127,
          0.0252085757, 0.028934937, 0.0810068622, 0.20160827,
          0.234618872, 0.184274167, 0.054324057, 0.0147964964,
          0.00980740506, 0.0230593588, 0.0815722123, 0.101333231,
          0.0636580363, 0.0835307539, 0.0273998976, 0.0324042812,
          0.0154316872, 0.034818247, 0.0512202755, 0.123587631,
          0.218427464, 0.316702813, 0.316702813, 0.100675285,
          0.0361590795, 0.0104327956, 0.0217285473, 0.141906455,
          0.316702813, 0.316702813, 0.316702813, 0.316702813,
          0.316702813, 0.0964871719, 0.040045429, 0.115599252,
          0.041274365, 0.0881694406, 0.120700113, 0.037560124,
          0.0326670371, 0.00670218049, 0.0113667874, 0.018894745,
          0.0605610348, 0.17523925, 0.144211203, 0.196072608,
          0.108824134, 0.111055523, 0.0097758323, 0.0174183398,
          0.049419526, 0.155396074, 0.136488423, 0.246327713,
          0.265713662, 0.265713662, 0.265713662, 0.194502681,
          0.0754037499, 0.0685562789, 0.117642187, 0.265713662,
          0.265713662, 0.265713662, 0.265713662, 0.252238482,
          0.106712118, 0.13153705, 0.164316058, 0.265713662, 0.250674099,
          0.126835033, 0.250674099, 0.152219191, 0.17863895,
          0.0139625287, 0.0248018373, 0.0341672227, 0.124657907,
          0.250674099, 0.105767004, 0.250674099, 0.131065071,
          0.149031758, 0.0426286198, 0.0337170586, 0.100365408,
          0.134666622, 0.250674099, 0.250674099, 0.184025243,
          0.138917282, 0.175664201, 0.108507998, 0.137103736,
          0.111418493, 0.250674099, 0.250674099, 0.138130948,
          0.117279433, 0.0762721077, 0.250674099, 0.152723417,
          0.145567268, 0.0642535165, 0.217327774, 0.0351117849,
          0.0248345435, 0.0367396064, 0.146731198, 0.325912774,
          0.324345708, 0.161198929, 0.028141845, 0.0514851138,
          0.0309594441, 0.0322351083, 0.040689446, 0.295524359,
          0.325912774, 0.23951523, 0.108738065, 0.017013913,
          0.0398433954, 0.0507462397, 0.0440980494, 0.0468942896,
          0.113312863, 0.325912774, 0.235527828, 0.111187175,
          0.0444962122, 0.0670032278, 0.01196732, 0.0217552092,
          0.0180265103, 0.267317802, 0.325912774, 0.281922251,
          0.0631243363, 0.0188816898, 0.0191804301, 0.00664380239,
          0.0315144248, 0.133229136, 0.208292097, 0.171890423,
          0.0277806576, 0.0100847417, 0.00881503057, 0.00883097295,
          0.0235052668, 0.0992380604, 0.300942093, 0.317093194,
          0.317093194, 0.158666, 0.0609222054, 0.0361767001,
          0.0349190459, 0.000435892609, 0.0117908027, 0.127966762,
          0.317093194, 0.317093194, 0.0415662453, 0.00790594891,
          0.0255508255, 0.0143762501, 0.00661006849, 0.0249396488,
          0.306320518, 0.317093194, 0.317093194, 0.182341382,
          0.0806258321, 0.102511942, 0.0670323595, 0.0523346774,
          0.0908225924, 0.139577046, 0.255614489, 0.255614489,
          0.152986392, 0.0703045502, 0.0489244089, 0.0404110961,
          0.255614489, 0.204581767, 0.157553941, 0.221875727,
          0.251532257, 0.107930966, 0.0946361274, 0.108039297,
          0.189160183, 0.0531052053, 0.0490098484, 0.127287179,
          0.255614489, 0.255614489, 0.167605042, 0.0747370124,
          0.0828756019, 0.0973927528, 0.255614489, 0.180511072,
          0.12606068, 0.149338439, 0.255614489, 0.104171425, 0.11596027,
          0.155156076, 0.198476002, 0.245573238, 0.245573238,
          0.212383434, 0.136243492, 0.211670995, 0.118029498,
          0.136496976, 0.101408713, 0.245573238, 0.200510278,
          0.144411758, 0.1508331, 0.0767724216, 0.245573238, 0.116372064,
          0.119807571, 0.0398787707, 0.12146239, 0.245573238,
          0.245573238, 0.173477441, 0.119233809, 0.232920647,
          0.0848349705, 0.149748564, 0.130024225, 0.223617777,
          0.188099876, 0.126094177, 0.114378609, 0.125400543,
          0.245573238, 0.0618206449, 0.0686397031, 0.03487942,
          0.0721397847, 0.0361610837, 0.0445492268, 0.0479086414,
          0.0919235349, 0.294721067, 0.106166951, 0.0568903945,
          0.0366705693, 0.0412777103, 0.00740564708, 0.0296904482,
          0.0278225318, 0.254007071, 0.392138779, 0.278154731,
          0.0515315905, 0.0209708046, 0.00867525954, 0.0320560001,
          0.0460675471, 0.033370208, 0.119719401, 0.324861825,
          0.0471073352, 0.0196275171, 0.0244101156, 0.0262456331,
          0.0121847857, 0.116266914, 0.225060746, 0.392138779,
          0.392138779, 0.27449289, 0.0377733223, 0.0168607235,
          0.0119276745, 0.0025217128, 0.00730768871, 0.0415971242,
          0.232296512, 0.278342009, 0.101931557, 0.0265038908,
          0.0125902742, 0.00609813118, 0.0837562084, 0.0415413864,
          0.136231109, 0.278342009, 0.278342009, 0.178369418,
          0.0707357451, 0.0675876215, 0.123951524, 0.0178017616,
          0.121485516, 0.136315957, 0.149523482, 0.278342009,
          0.158161134, 0.0571823493, 0.0191726498, 0.0240549315,
          0.186097786, 0.278342009, 0.278342009, 0.278342009,
          0.278342009, 0.178062767, 0.0968912765, 0.0904110745,
          0.239137396, 0.191433385, 0.0779758394, 0.0743564665,
          0.210045964, 0.237885028, 0.109058209, 0.0561834238,
          0.061993219, 0.219442382, 0.219424218, 0.114172317,
          0.0798031613, 0.0725050122, 0.156974494, 0.110699356,
          0.158593476, 0.122424372, 0.156570271, 0.237885028,
          0.237885028, 0.237885028, 0.237885028, 0.114373945,
          0.0700007528, 0.05591188, 0.0901340395, 0.237885028,
          0.237885028, 0.237885028, 0.237885028, 0.222600102,
          0.117799051, 0.0970946476, 0.129683957, 0.102559894,
          0.158478111, 0.215874389, 0.132853925, 0.13250038, 0.109597676,
          0.183635101, 0.152875319, 0.230855852, 0.152393579,
          0.128640085, 0.0821328461, 0.0505923666, 0.0665540025,
          0.152426928, 0.230855852, 0.0901247934, 0.0482902862,
          0.042333439, 0.0986971408, 0.230855852, 0.230855852,
          0.230855852, 0.184758082, 0.156989977, 0.135977581,
          0.230855852, 0.161752552, 0.230855852, 0.230855852,
          0.166186944, 0.158827037, 0.166144922, 0.146598354,
          0.168617234, 0.139212281, 0.123351157, 0.230855852,
          0.0156759471, 0.0189867467, 0.0128201814, 0.0252234247,
          0.0825661421, 0.0357527398, 0.00747274747, 0.0136499899,
          0.0152742816, 0.0138752954, 0.263125509, 0.359127462,
          0.257413417, 0.342706978, 0.107615955, 0.0136140594,
          0.00899583939, 0.011992638, 0.0140495971, 0.0478757396,
          0.0804056302, 0.0730786026, 0.111604072, 0.0661160201,
          0.023007771, 0.0110059576, 0.014873568, 0.0385606401,
          0.364865184, 0.364865184, 0.364865184, 0.364865184,
          0.157227024, 0.0331332162, 0.0122142499, 0.0179341659,
          0.0290596746, 0.278167844, 0.278167844, 0.183677986,
          0.197990075, 0.0725429878, 0.0249546207, 0.0307315625,
          0.0500774533, 0.15953894, 0.278167844, 0.278167844,
          0.201894939, 0.146551281, 0.0980230719, 0.0478968695,
          0.130361706, 0.252935767, 0.0252850931, 0.278167844,
          0.278167844, 0.259391159, 0.165290207, 0.0264440142,
          0.0145114874, 0.0137927663, 0.0235944055, 0.0907360241,
          0.196120933, 0.250409901, 0.119857177, 0.161937431,
          0.0556830131, 0.021280352, 0.0675815791, 0.119412005,
          0.188324675, 0.258091599, 0.258091599, 0.258091599,
          0.0898729265, 0.0537442826, 0.0480447412, 0.148654759,
          0.193013251, 0.175973237, 0.258091599, 0.258091599, 0.24970448,
          0.110634595, 0.0423826799, 0.0607258491, 0.0640840009,
          0.0685812309, 0.157343626, 0.135332048, 0.145530149,
          0.153257325, 0.245591015, 0.0787900537, 0.0260859691,
          0.103995137, 0.197209537, 0.195572898, 0.162946507,
          0.164100692, 0.154445797, 0.162659228, 0.0796086937,
          0.0673294365, 0.110668853, 0.258091599, 0.253155082,
          0.253155082, 0.253155082, 0.160755962, 0.109615564,
          0.0544482321, 0.126704216, 0.0907062441, 0.170938924,
          0.253155082, 0.204431027, 0.253155082, 0.127713099,
          0.0591142662, 0.0865942389, 0.10102585, 0.0865309834,
          0.253155082, 0.199236751, 0.173579127, 0.253155082,
          0.124408998, 0.102772146, 0.104445696, 0.0925124437,
          0.115055531, 0.251451969, 0.108752161, 0.253155082,
          0.253155082, 0.113156348, 0.112152882, 0.0315063894,
          0.023671126, 0.0273876712, 0.0908729956 ]
      - [ 0.17373167, 0.165226743, 0.310167223, 0.0492860638,
          0.163150311, 0.0227489676, 0.00581234554, 0.0208783634,
          0.113917865, 0.0647217855, 0.0346394554, 0.0714364424,
          0.0444657877, 0.10685467, 0.030800283, 0.0178581774,
          0.0124796983, 0.0405702367, 0.310167223, 0.310167223,
          0.310167223, 0.112296946, 0.307789117, 0.0380715095,
          0.0124469819, 0.0351619273, 0.166781053, 0.207946926,
          0.209546834, 0.310167223, 0.178177327, 0.255238742,
          0.0978120416, 0.0771084353, 0.160516426, 0.158449098,
          0.0895253792, 0.061070282, 0.099514246, 0.0691645294,
          0.0388501249, 0.0150585687, 0.0163496975, 0.0240108762,
          0.0451722853, 0.126154408, 0.0807993785, 0.151200861,
          0.122498579, 0.0453120135, 0.0102856662, 0.0286921635,
          0.0834347233, 0.113341838, 0.274927646, 0.274927646,
          0.274927646, 0.274927646, 0.220202327, 0.0883266255,
          0.0867111832, 0.17763561, 0.204340771, 0.274927646,
          0.274927646, 0.274927646, 0.274927646, 0.177432001,
          0.0500381552, 0.0864537284, 0.192098171, 0.25087297,
          0.107784599, 0.0427000411, 0.122054406, 0.117513344,
          0.0828269497, 0.0792074949, 0.0615346991, 0.0945249423,
          0.201247573, 0.157480195, 0.0560195372, 0.113044947,
          0.15046981, 0.197081149, 0.124855943, 0.0435520895,
          0.0325706042, 0.233928636, 0.233928636, 0.219807386,
          0.233928636, 0.233928636, 0.205601498, 0.166225344,
          0.139635593, 0.214364439, 0.233928636, 0.195840552,
          0.130715594, 0.139233738, 0.227531224, 0.233928636,
          0.233928636, 0.105989754, 0.0955643281, 0.233928636,
          0.251059979, 0.0715936199, 0.0895808116, 0.121234752,
          0.167925313, 0.076509051, 0.0328965113, 0.0300871711,
          0.251059979, 0.225131691, 0.02062211, 0.0218529422,
          0.0152716739, 0.0969057828, 0.193384945, 0.232433558,
          0.127037615, 0.221690148, 0.231134877, 0.124801755,
          0.0671707988, 0.176781088, 0.251059979, 0.251059979,
          0.0748766884, 0.102587871, 0.251059979, 0.148159161,
          0.0542860664, 0.0371214524, 0.098323755, 0.251059979,
          0.251059979, 0.25099805, 0.147851497, 0.181021735, 0.109086335,
          0.12983945, 0.309991688, 0.0767367929, 0.12725237, 0.030822318,
          0.0224638451, 0.0199725982, 0.0615206175, 0.158508539,
          0.259726167, 0.309991688, 0.203399792, 0.291069955,
          0.173534468, 0.193296462, 0.183456793, 0.121643357,
          0.0462490655, 0.0254856665, 0.0366631187, 0.0501008257,
          0.194450304, 0.0554293282, 0.0348239653, 0.0136809535,
          0.0170727093, 0.107577346, 0.142903894, 0.145032153,
          0.21313484, 0.309991688, 0.300821602, 0.256360352, 0.110868514,
          0.0367964134, 0.167118937, 0.248792008, 0.272818059,
          0.279923171, 0.281993568, 0.155084059, 0.150064498,
          0.130493447, 0.130113155, 0.102699399, 0.168704793, 0.20269978,
          0.27483055, 0.234489635, 0.0831759796, 0.0511964373,
          0.0473493822, 0.0881876349, 0.0405761227, 0.109327756,
          0.0729824826, 0.162881225, 0.282008886, 0.26850149,
          0.162722915, 0.0534379445, 0.0268624071, 0.021904707,
          0.0272705443, 0.0403483175, 0.159717545, 0.282008886,
          0.164756283, 0.0359658301, 0.0134346252, 0.0265804995,
          0.133835882, 0.129517406, 0.165900633, 0.250831604,
          0.276910394, 0.13690488, 0.0777179599, 0.0681700483,
          0.0720261112, 0.0912604257, 0.0995711088, 0.079737559,
          0.248959348, 0.276910394, 0.276910394, 0.0859077275,
          0.0551012345, 0.0637877807, 0.121389426, 0.0617225245,
          0.0856582746, 0.223104417, 0.276910394, 0.153314263,
          0.103505589, 0.056325648, 0.139385775, 0.105814524,
          0.0748297423, 0.0626691133, 0.276910394, 0.276910394,
          0.276910394, 0.161093369, 0.0568474643, 0.131461769,
          0.0120719513, 0.0723565146, 0.018131908, 0.150480375,
          0.381210178, 0.204799592, 0.0452927239, 0.0727127865,
          0.0620921366, 0.00598273519, 0.0342987366, 0.0159877799,
          0.111707427, 0.381210178, 0.141287044, 0.0452774763,
          0.0562453605, 0.0361031964, 0.00596863311, 0.0577348098,
          0.0280941669, 0.286880553, 0.381210178, 0.326072037,
          0.061731603, 0.0424665883, 0.0205845479, 0.0020500985,
          0.0328530297, 0.0215667412, 0.224638343, 0.381210178,
          0.201827869, 0.0240613595, 0.0275263228, 0.00941003766,
          0.0166541748, 0.00376758259, 0.00536928792, 0.0165915582,
          0.23572287, 0.0374785997, 0.0163151268, 0.0050323871,
          0.00792218372, 0.0421012044, 0.021272907, 0.009630193,
          0.154521078, 0.390482754, 0.282244235, 0.141524225,
          0.0431984551, 0.0182966106, 0.0314102657, 0.0406041965,
          0.0277423579, 0.0278229229, 0.151450545, 0.0206417143,
          0.0234081559, 0.0160519239, 0.0231146943, 0.187600672,
          0.0610226803, 0.0219244938, 0.191372007, 0.390482754,
          0.345651329, 0.390482754, 0.162651539, 0.31910494,
          0.0209248625, 0.0247334987, 0.00460738409, 0.106289186,
          0.270823509, 0.189793006, 0.0782206208, 0.0455920845,
          0.0345759802, 0.0185671318, 0.0244550053, 0.0237852912,
          0.0910900682, 0.270823509, 0.124729097, 0.0487791263,
          0.0521260723, 0.0504667349, 0.216260463, 0.081963174,
          0.0178576466, 0.110937372, 0.270823509, 0.270823509,
          0.270823509, 0.229133695, 0.270823509, 0.22069101,
          0.0941571742, 0.0449263901, 0.0885096714, 0.157052144,
          0.234315813, 0.255433291, 0.249468118, 0.270823509,
          0.0650728047, 0.0363718159, 0.0480574146, 0.0900401995,
          0.194193855, 0.176467746, 0.138232648, 0.0667939261,
          0.0954797715, 0.0618568584, 0.0455600619, 0.0329217613,
          0.134923443, 0.248190284, 0.248190284, 0.171058387,
          0.0548278801, 0.0878774002, 0.248190284, 0.0894988552,
          0.0547585823, 0.122563057, 0.248190284, 0.248190284,
          0.248190284, 0.159862041, 0.248190284, 0.248190284,
          0.0656458363, 0.0577966757, 0.193170324, 0.248190284,
          0.248190284, 0.215367258, 0.098265931, 0.215066046,
          0.0265261102, 0.114560023, 0.0508488715, 0.235905215,
          0.32469824, 0.323075145, 0.0833744109, 0.0470861085,
          0.0251294747, 0.0107370401, 0.0847692564, 0.038642887,
          0.233258724, 0.32469824, 0.179162681, 0.0179449003,
          0.020413667, 0.00776322791, 0.147791892, 0.0893848166,
          0.0694682077, 0.205096975, 0.32469824, 0.218060717,
          0.0932725295, 0.0696783885, 0.235842004, 0.081040971,
          0.0764861777, 0.0873728245, 0.220535129, 0.32469824,
          0.100354373, 0.0372061208, 0.0404330008, 0.132168382,
          0.0887118429, 0.14804247, 0.0814299285, 0.0523086898,
          0.0781758055, 0.018422354, 0.0350755863, 0.0386231355,
          0.073123768, 0.316160232, 0.157154143, 0.102391079,
          0.305234402, 0.316160232, 0.316160232, 0.316160232,
          0.316160232, 0.316160232, 0.184238106, 0.0987329185,
          0.0433219224, 0.0269522592, 0.0202861372, 0.00961556379,
          0.018559197, 0.027570067, 0.116046935, 0.201822415,
          0.174638599, 0.123710759, 0.10500437, 0.0534821153,
          0.0740649924, 0.0911422148, 0.102438286, 0.170282662,
          0.280204862, 0.0875652134, 0.051145222, 0.125672564,
          0.127742842, 0.264257193, 0.280204862, 0.280204862,
          0.280204862, 0.280204862, 0.0817384645, 0.0778373182,
          0.148683622, 0.136418, 0.261583984, 0.280204862, 0.280204862,
          0.280204862, 0.100587897, 0.0518756211, 0.0497240089,
          0.0821113214, 0.0537220202, 0.0640866011, 0.0611969866,
          0.0932790935, 0.134653479, 0.102787949, 0.0409462415,
          0.0677722469, 0.10872826, 0.0743121803, 0.0578745492,
          0.0671338737, 0.0956937373, 0.155513674, 0.259634346,
          0.072300531, 0.0390192308, 0.134449124, 0.259634346,
          0.252010077, 0.217676058, 0.151736841, 0.259634346,
          0.259634346, 0.0703411847, 0.110941127, 0.211974993,
          0.259634346, 0.259634346, 0.200809836, 0.142869964,
          0.259634346, 0.10234721, 0.05214018, 0.0391298346,
          0.0559299141, 0.104077205, 0.0802184939, 0.0532502159,
          0.0489660278, 0.141763404, 0.175335571, 0.0521163456,
          0.0731036961, 0.0764117688, 0.21421355, 0.12362051,
          0.0846153423, 0.082455121, 0.252285123, 0.264448524,
          0.0670759678, 0.150870353, 0.223532125, 0.264448524,
          0.212113887, 0.178769216, 0.163892448, 0.264448524,
          0.230046719, 0.101519406, 0.202988401, 0.174839497,
          0.235197961, 0.114840567, 0.122094236, 0.136274919,
          0.264448524, 0.264448524, 0.0516362377, 0.0930234343,
          0.0682246611, 0.150178373, 0.0802303329, 0.105609491,
          0.11221844, 0.264448524, 0.140655786, 0.0659218282,
          0.101713732, 0.0444467776, 0.0775709227, 0.0434238501,
          0.0749203488, 0.0907575339, 0.181163192 ]
      - [ 0.0416761003, 0.0290935542, 0.0407753587, 0.0154112913,
          0.0265689958, 0.000273691898, 0.000806267257, 0.00812963117,
          0.0225396529, 0.217470124, 0.229850084, 0.289777845,
          0.113332868, 0.219446853, 0.00662682811, 0.00667515025,
          0.00937922206, 0.107522413, 0.206470132, 0.219342023,
          0.220588982, 0.131781533, 0.189978927, 0.0277504586,
          0.0237892047, 0.0277886, 0.0978800356, 0.289777845,
          0.289777845, 0.289777845, 0.289777845, 0.289777845,
          0.138963953, 0.0451177172, 0.0691711903, 0.289777845,
          0.153030723, 0.228677988, 0.248025179, 0.0958610624,
          0.118670598, 0.0162351169, 0.00863963459, 0.00877992529,
          0.0814883783, 0.0595266521, 0.103986196, 0.147253811,
          0.104795903, 0.120314911, 0.050064709, 0.0290946867,
          0.0323817246, 0.117822014, 0.248025179, 0.248025179,
          0.227599993, 0.245583221, 0.248025179, 0.166386724,
          0.109867074, 0.0620681569, 0.204195917, 0.146071449,
          0.136949971, 0.103017978, 0.248025179, 0.248025179,
          0.248025179, 0.248025179, 0.0996487215, 0.248025179,
          0.0860995874, 0.0387300588, 0.0410732403, 0.114725091,
          0.149680451, 0.0871703029, 0.0548537858, 0.0844173208,
          0.167420238, 0.0682668537, 0.0180268586, 0.0149042709,
          0.0214955956, 0.0673213229, 0.091845803, 0.10638278,
          0.101071924, 0.0814212784, 0.158875406, 0.0840288997,
          0.0605757795, 0.228243217, 0.323019534, 0.323019534,
          0.29253298, 0.174365088, 0.317992151, 0.0956213102,
          0.0302597918, 0.0225084983, 0.0783933774, 0.323019534,
          0.323019534, 0.223992944, 0.217410699, 0.146152839,
          0.0576133616, 0.0262227319, 0.0352753513, 0.00174807932,
          0.108916603, 0.303050607, 0.334950387, 0.195484981,
          0.0895114094, 0.111928284, 0.106081694, 0.0576590709,
          0.00429682387, 0.0540823415, 0.0391680524, 0.095243454,
          0.0479531474, 0.079365924, 0.0846917555, 0.0562593266,
          0.0158304553, 0.0115721505, 0.334950387, 0.334950387,
          0.334950387, 0.334950387, 0.168671548, 0.198181972,
          0.220494136, 0.105875969, 0.0112778023, 0.0603303835,
          0.134070233, 0.19174394, 0.10787943, 0.151117429, 0.0958321318,
          0.105640501, 0.126538843, 0.210911319, 0.290356159,
          0.0461621024, 0.00768069597, 0.00652142894, 0.027004825,
          0.219929144, 0.227183789, 0.234759212, 0.237108663,
          0.353587121, 0.123907834, 0.0166496392, 0.0175325591,
          0.0760909915, 0.0281956978, 0.0386992879, 0.070653297,
          0.298302233, 0.353587121, 0.109830029, 0.00871734321,
          0.000914245669, 0.00441003544, 0.0602317899, 0.0585632212,
          0.0970865935, 0.256701499, 0.353587121, 0.170250401,
          0.0170838013, 0.00444598496, 0.0119615281, 0.153872147,
          0.128475159, 0.111340687, 0.161674872, 0.30751279, 0.222548187,
          0.106023468, 0.0395839363, 0.0844084099, 0.0535431951,
          0.0484902412, 0.0524098799, 0.183690384, 0.30751279,
          0.30751279, 0.193751499, 0.0490744524, 0.0761254281,
          0.0350231491, 0.0245873313, 0.037304908, 0.152229056,
          0.30751279, 0.260621667, 0.0787001923, 0.0199943595,
          0.0166270472, 0.00837410428, 0.0147411255, 0.0656249076,
          0.25817275, 0.30751279, 0.30751279, 0.14389576, 0.0244890265,
          0.0130771073, 0.0228321832, 0.0244877301, 0.0293995049,
          0.141910151, 0.348517984, 0.348517984, 0.222655058,
          0.0413398705, 0.039840769, 0.00889616087, 0.00783811696,
          0.0114909746, 0.0437086523, 0.348517984, 0.192028269,
          0.0953532159, 0.0339251831, 0.0167479999, 0.00124008616,
          0.0206185356, 0.0946097746, 0.236499593, 0.348517984,
          0.339523971, 0.203318283, 0.0180373415, 0.0028045245, 0.,
          0.00641936902, 0.0344625302, 0.0967130139, 0.348517984,
          0.162619919, 0.0726424232, 0.00739307748, 7.84698786e-05,
          0.0211610273, 0.0219672155, 0.0194784068, 0.105194889,
          0.411944538, 0.411944538, 0.224169955, 0.0703819394,
          0.0396847837, 0.0654623508, 0.0759494826, 0.0541352481,
          0.0332233086, 0.115140527, 0.0923195034, 0.0855296925,
          0.0385365039, 0.0560939498, 0.010447883, 0.0465816222,
          0.103709452, 0.377720118, 0.411944538, 0.32706362,
          0.0392981358, 0.00539519032, 0.00361921801, 0.0832823366,
          0.152632236, 0.15534544, 0.114991233, 0.186445445,
          0.0337559618, 0.0331743509, 0.00906339101, 0.0297044814,
          0.00107301562, 0.00408404414, 0.0111849764, 0.108965814,
          0.320997477, 0.141409069, 0.0258962139, 0.00883507542,
          0.00385686965, 0.0122928657, 0.0105116609, 0.0207017157,
          0.119565703, 0.320997477, 0.156523556, 0.045819506,
          0.0401109494, 0.0254129879, 0.0148364687, 0.0278554056,
          0.0270581059, 0.0494096428, 0.320997477, 0.296382964,
          0.0649873242, 0.060417939, 0.144809425, 0.10941799,
          0.0670460016, 0.0738956779, 0.0774922445, 0.320997477,
          0.274108708, 0.297101259, 0.320997477, 0.304607213,
          0.0171590596, 0.0307701621, 0.0450714342, 0.157085434,
          0.312979996, 0.108163387, 0.0434750095, 0.0297047477,
          0.0256046038, 0.00639809854, 0.0342133157, 0.0926640034,
          0.243544593, 0.312979996, 0.177671701, 0.0642189234,
          0.0161001794, 0.0155652752, 0.164634123, 0.107676566,
          0.125711158, 0.140420452, 0.312979996, 0.142159253,
          0.289353251, 0.213139504, 0.163037345, 0.105030604, 0.12756148,
          0.156010166, 0.312979996, 0.312979996, 0.168655246,
          0.140372902, 0.0532104187, 0.076958023, 0.00120297784,
          0.0152135622, 0.15236491, 0.230617896, 0.370196879,
          0.221145123, 0.0761415139, 0.00461145444, 0.00417109858,
          0.000982651836, 0.0027218652, 0.0631633475, 0.134637684,
